<?xml version="1.0"?>
<opencv_storage>
<cascade>
  <stageType>BOOST</stageType>
  <featureType>HAAR</featureType>
  <height>24</height>
  <width>24</width>
  <stageParams>
    <boostType>GAB</boostType>
    <minHitRate>9.9900001287460327e-01</minHitRate>
    <maxFalseAlarm>2.5000000000000000e-01</maxFalseAlarm>
    <weightTrimRate>9.4999999999999996e-01</weightTrimRate>
    <maxDepth>1</maxDepth>
    <maxWeakCount>100</maxWeakCount></stageParams>
  <featureParams>
    <maxCatCount>0</maxCatCount>
    <featSize>1</featSize>
    <mode>BASIC</mode></featureParams>
  <stageNum>10</stageNum>
  <stages>
    <!-- stage 0 -->
    <_>
      <maxWeakCount>16</maxWeakCount>
      <stageThreshold>-2.9930801391601563e+00</stageThreshold>
      <weakClassifiers>
        <_>
          <internalNodes>
            0 -1 140 3.1431935727596283e-02</internalNodes>
          <leafValues>
            -9.4128042459487915e-01 3.8005390763282776e-01</leafValues></_>
        <_>
          <internalNodes>
            0 -1 200 -4.0116310119628906e-02</internalNodes>
          <leafValues>
            4.4315049052238464e-01 -8.1986051797866821e-01</leafValues></_>
        <_>
          <internalNodes>
            0 -1 504 -1.2832531705498695e-02</internalNodes>
          <leafValues>
            6.3423371315002441e-01 -4.9064508080482483e-01</leafValues></_>
        <_>
          <internalNodes>
            0 -1 166 -8.3275735378265381e-03</internalNodes>
          <leafValues>
            7.0101559162139893e-01 -2.6218432188034058e-01</leafValues></_>
        <_>
          <internalNodes>
            0 -1 107 -2.0866218954324722e-02</internalNodes>
          <leafValues>
            7.0732969045639038e-01 -2.4695317447185516e-01</leafValues></_>
        <_>
          <internalNodes>
            0 -1 540 2.3290798068046570e-02</internalNodes>
          <leafValues>
            -2.0824612677097321e-01 7.3364573717117310e-01</leafValues></_>
        <_>
          <internalNodes>
            0 -1 229 2.0966571755707264e-03</internalNodes>
          <leafValues>
            2.4168014526367188e-01 -8.2720971107482910e-01</leafValues></_>
        <_>
          <internalNodes>
            0 -1 464 8.5707346443086863e-04</internalNodes>
          <leafValues>
            2.6410296559333801e-01 -6.1728829145431519e-01</leafValues></_>
        <_>
          <internalNodes>
            0 -1 408 6.8833823315799236e-03</internalNodes>
          <leafValues>
            -2.3414793610572815e-01 7.6183915138244629e-01</leafValues></_>
        <_>
          <internalNodes>
            0 -1 338 1.0096929967403412e-02</internalNodes>
          <leafValues>
            -1.9344535470008850e-01 7.9321575164794922e-01</leafValues></_>
        <_>
          <internalNodes>
            0 -1 57 -4.3402303708717227e-04</internalNodes>
          <leafValues>
            -8.1995904445648193e-01 2.2664949297904968e-01</leafValues></_>
        <_>
          <internalNodes>
            0 -1 57 3.9339106297120452e-04</internalNodes>
          <leafValues>
            2.5459650158882141e-01 -7.5148290395736694e-01</leafValues></_>
        <_>
          <internalNodes>
            0 -1 72 4.6177953481674194e-03</internalNodes>
          <leafValues>
            -3.1805148720741272e-01 6.0682976245880127e-01</leafValues></_>
        <_>
          <internalNodes>
            0 -1 365 -3.9200671017169952e-03</internalNodes>
          <leafValues>
            6.3933473825454712e-01 -2.0718142390251160e-01</leafValues></_>
        <_>
          <internalNodes>
            0 -1 537 -3.5516167990863323e-03</internalNodes>
          <leafValues>
            -8.2850199937820435e-01 1.9644789397716522e-01</leafValues></_>
        <_>
          <internalNodes>
            0 -1 489 -1.8668595701456070e-02</internalNodes>
          <leafValues>
            6.3416147232055664e-01 -2.5456118583679199e-01</leafValues></_></weakClassifiers></_>
    <!-- stage 1 -->
    <_>
      <maxWeakCount>18</maxWeakCount>
      <stageThreshold>-3.5128557682037354e+00</stageThreshold>
      <weakClassifiers>
        <_>
          <internalNodes>
            0 -1 359 -9.8203960806131363e-03</internalNodes>
          <leafValues>
            4.7530865669250488e-01 -9.3822693824768066e-01</leafValues></_>
        <_>
          <internalNodes>
            0 -1 188 1.7911352217197418e-02</internalNodes>
          <leafValues>
            -8.2928973436355591e-01 4.7757962346076965e-01</leafValues></_>
        <_>
          <internalNodes>
            0 -1 556 1.3426687568426132e-02</internalNodes>
          <leafValues>
            -5.3363573551177979e-01 6.2781125307083130e-01</leafValues></_>
        <_>
          <internalNodes>
            0 -1 128 -5.7220570743083954e-03</internalNodes>
          <leafValues>
            7.1997344493865967e-01 -3.8633444905281067e-01</leafValues></_>
        <_>
          <internalNodes>
            0 -1 373 2.5284457951784134e-03</internalNodes>
          <leafValues>
            -2.5560066103935242e-01 7.1098995208740234e-01</leafValues></_>
        <_>
          <internalNodes>
            0 -1 102 -7.0796040818095207e-03</internalNodes>
          <leafValues>
            7.3696810007095337e-01 -2.7268958091735840e-01</leafValues></_>
        <_>
          <internalNodes>
            0 -1 377 -8.6028249934315681e-03</internalNodes>
          <leafValues>
            -9.7740906476974487e-01 2.0948308706283569e-01</leafValues></_>
        <_>
          <internalNodes>
            0 -1 116 4.9019372090697289e-03</internalNodes>
          <leafValues>
            -2.2475062310695648e-01 7.3396551609039307e-01</leafValues></_>
        <_>
          <internalNodes>
            0 -1 416 -4.5818295329809189e-03</internalNodes>
          <leafValues>
            5.9790188074111938e-01 -2.4619001150131226e-01</leafValues></_>
        <_>
          <internalNodes>
            0 -1 378 7.2252145037055016e-03</internalNodes>
          <leafValues>
            -2.0210227370262146e-01 7.1411699056625366e-01</leafValues></_>
        <_>
          <internalNodes>
            0 -1 204 -3.9503041654825211e-02</internalNodes>
          <leafValues>
            -2.2414819896221161e-01 6.1360991001129150e-01</leafValues></_>
        <_>
          <internalNodes>
            0 -1 454 2.1766876801848412e-02</internalNodes>
          <leafValues>
            -2.2209046781063080e-01 6.9566470384597778e-01</leafValues></_>
        <_>
          <internalNodes>
            0 -1 117 2.7024950832128525e-02</internalNodes>
          <leafValues>
            -2.1723119914531708e-01 6.9303172826766968e-01</leafValues></_>
        <_>
          <internalNodes>
            0 -1 415 3.1666504219174385e-03</internalNodes>
          <leafValues>
            -2.2761712968349457e-01 6.0532242059707642e-01</leafValues></_>
        <_>
          <internalNodes>
            0 -1 379 8.7216496467590332e-04</internalNodes>
          <leafValues>
            2.3165260255336761e-01 -7.4984544515609741e-01</leafValues></_>
        <_>
          <internalNodes>
            0 -1 401 -9.4805564731359482e-04</internalNodes>
          <leafValues>
            -8.7373661994934082e-01 1.0560476034879684e-01</leafValues></_>
        <_>
          <internalNodes>
            0 -1 219 3.0965441837906837e-03</internalNodes>
          <leafValues>
            -2.8754281997680664e-01 4.9626788496971130e-01</leafValues></_>
        <_>
          <internalNodes>
            0 -1 191 -4.7309227287769318e-02</internalNodes>
          <leafValues>
            -7.8177690505981445e-01 1.7009559273719788e-01</leafValues></_></weakClassifiers></_>
    <!-- stage 2 -->
    <_>
      <maxWeakCount>40</maxWeakCount>
      <stageThreshold>-3.6558821201324463e+00</stageThreshold>
      <weakClassifiers>
        <_>
          <internalNodes>
            0 -1 184 2.6875497773289680e-02</internalNodes>
          <leafValues>
            -9.3858951330184937e-01 6.7538127303123474e-02</leafValues></_>
        <_>
          <internalNodes>
            0 -1 365 -3.9154272526502609e-03</internalNodes>
          <leafValues>
            2.4569402635097504e-01 -8.0503171682357788e-01</leafValues></_>
        <_>
          <internalNodes>
            0 -1 418 -3.2419621944427490e-02</internalNodes>
          <leafValues>
            5.5967700481414795e-01 -4.9340468645095825e-01</leafValues></_>
        <_>
          <internalNodes>
            0 -1 81 -1.3704518787562847e-02</internalNodes>
          <leafValues>
            6.6372370719909668e-01 -2.8580987453460693e-01</leafValues></_>
        <_>
          <internalNodes>
            0 -1 502 -6.1588892713189125e-03</internalNodes>
          <leafValues>
            4.9743917584419250e-01 -3.7651666998863220e-01</leafValues></_>
        <_>
          <internalNodes>
            0 -1 591 7.7073774300515652e-03</internalNodes>
          <leafValues>
            -2.0623087882995605e-01 6.9801974296569824e-01</leafValues></_>
        <_>
          <internalNodes>
            0 -1 331 -7.9786889255046844e-03</internalNodes>
          <leafValues>
            6.9536870718002319e-01 -1.7208740115165710e-01</leafValues></_>
        <_>
          <internalNodes>
            0 -1 473 8.0134160816669464e-03</internalNodes>
          <leafValues>
            -1.4123597741127014e-01 8.1820529699325562e-01</leafValues></_>
        <_>
          <internalNodes>
            0 -1 221 -7.3697441257536411e-03</internalNodes>
          <leafValues>
            4.9699732661247253e-01 -2.5390729308128357e-01</leafValues></_>
        <_>
          <internalNodes>
            0 -1 550 2.8544187545776367e-02</internalNodes>
          <leafValues>
            -2.1345335245132446e-01 6.0437595844268799e-01</leafValues></_>
        <_>
          <internalNodes>
            0 -1 254 -4.1805226355791092e-02</internalNodes>
          <leafValues>
            4.6296870708465576e-01 -2.9563611745834351e-01</leafValues></_>
        <_>
          <internalNodes>
            0 -1 51 -6.1040865257382393e-03</internalNodes>
          <leafValues>
            -8.6017197370529175e-01 2.0543429255485535e-01</leafValues></_>
        <_>
          <internalNodes>
            0 -1 514 3.7362782750278711e-03</internalNodes>
          <leafValues>
            1.1611048877239227e-01 -9.2296117544174194e-01</leafValues></_>
        <_>
          <internalNodes>
            0 -1 293 -1.4686010777950287e-02</internalNodes>
          <leafValues>
            6.4028507471084595e-01 -2.3602183163166046e-01</leafValues></_>
        <_>
          <internalNodes>
            0 -1 203 -4.3047346174716949e-02</internalNodes>
          <leafValues>
            -2.8725394606590271e-01 4.8321083188056946e-01</leafValues></_>
        <_>
          <internalNodes>
            0 -1 330 -1.0178497061133385e-02</internalNodes>
          <leafValues>
            6.7286080121994019e-01 -1.8456445634365082e-01</leafValues></_>
        <_>
          <internalNodes>
            0 -1 594 4.6103773638606071e-04</internalNodes>
          <leafValues>
            1.5958161652088165e-01 -7.7859997749328613e-01</leafValues></_>
        <_>
          <internalNodes>
            0 -1 279 -2.2547747939825058e-03</internalNodes>
          <leafValues>
            5.3440809249877930e-01 -2.4278649687767029e-01</leafValues></_>
        <_>
          <internalNodes>
            0 -1 120 2.6678826659917831e-02</internalNodes>
          <leafValues>
            -1.9832830131053925e-01 5.9240055084228516e-01</leafValues></_>
        <_>
          <internalNodes>
            0 -1 14 -3.5704096080735326e-04</internalNodes>
          <leafValues>
            -7.8273189067840576e-01 1.5020239353179932e-01</leafValues></_>
        <_>
          <internalNodes>
            0 -1 363 5.0100479274988174e-03</internalNodes>
          <leafValues>
            -1.3715480268001556e-01 8.2644569873809814e-01</leafValues></_>
        <_>
          <internalNodes>
            0 -1 14 2.7667498216032982e-04</internalNodes>
          <leafValues>
            1.9208219647407532e-01 -5.8725059032440186e-01</leafValues></_>
        <_>
          <internalNodes>
            0 -1 243 -5.5293533951044083e-03</internalNodes>
          <leafValues>
            6.5970891714096069e-01 -1.7977651953697205e-01</leafValues></_>
        <_>
          <internalNodes>
            0 -1 354 8.1653578672558069e-04</internalNodes>
          <leafValues>
            1.4512221515178680e-01 -7.4747866392135620e-01</leafValues></_>
        <_>
          <internalNodes>
            0 -1 355 -1.8189793918281794e-03</internalNodes>
          <leafValues>
            -8.4061419963836670e-01 9.2916838824748993e-02</leafValues></_>
        <_>
          <internalNodes>
            0 -1 43 -5.4296152666211128e-03</internalNodes>
          <leafValues>
            7.0762979984283447e-01 -1.6558547317981720e-01</leafValues></_>
        <_>
          <internalNodes>
            0 -1 136 -5.5938595905900002e-03</internalNodes>
          <leafValues>
            5.2080810070037842e-01 -1.8077133595943451e-01</leafValues></_>
        <_>
          <internalNodes>
            0 -1 604 9.5923634944483638e-04</internalNodes>
          <leafValues>
            1.4646923542022705e-01 -6.9107705354690552e-01</leafValues></_>
        <_>
          <internalNodes>
            0 -1 280 -1.1648158761090599e-05</internalNodes>
          <leafValues>
            -4.4868561625480652e-01 1.9247226417064667e-01</leafValues></_>
        <_>
          <internalNodes>
            0 -1 341 -9.2791449278593063e-03</internalNodes>
          <leafValues>
            7.0117855072021484e-01 -1.4424997568130493e-01</leafValues></_>
        <_>
          <internalNodes>
            0 -1 302 2.5271060876548290e-03</internalNodes>
          <leafValues>
            1.2990410625934601e-01 -8.3920067548751831e-01</leafValues></_>
        <_>
          <internalNodes>
            0 -1 386 -1.6541657969355583e-03</internalNodes>
          <leafValues>
            6.2039381265640259e-01 -1.8016430735588074e-01</leafValues></_>
        <_>
          <internalNodes>
            0 -1 36 -3.4719193354249001e-03</internalNodes>
          <leafValues>
            -9.2374783754348755e-01 1.0939604789018631e-01</leafValues></_>
        <_>
          <internalNodes>
            0 -1 16 1.0972605086863041e-03</internalNodes>
          <leafValues>
            1.3769558072090149e-01 -5.0450670719146729e-01</leafValues></_>
        <_>
          <internalNodes>
            0 -1 109 -9.5602991059422493e-03</internalNodes>
          <leafValues>
            7.1092075109481812e-01 -1.3743002712726593e-01</leafValues></_>
        <_>
          <internalNodes>
            0 -1 121 -2.7318317443132401e-03</internalNodes>
          <leafValues>
            -6.1269569396972656e-01 1.5172488987445831e-01</leafValues></_>
        <_>
          <internalNodes>
            0 -1 492 -3.1981952488422394e-03</internalNodes>
          <leafValues>
            4.3336758017539978e-01 -1.8973644077777863e-01</leafValues></_>
        <_>
          <internalNodes>
            0 -1 493 -9.2490561655722558e-05</internalNodes>
          <leafValues>
            -4.2539209127426147e-01 2.0908963680267334e-01</leafValues></_>
        <_>
          <internalNodes>
            0 -1 424 5.1305247470736504e-03</internalNodes>
          <leafValues>
            -1.3796955347061157e-01 6.7128539085388184e-01</leafValues></_>
        <_>
          <internalNodes>
            0 -1 123 -1.1452199942141306e-05</internalNodes>
          <leafValues>
            -3.9252048730850220e-01 2.1914838254451752e-01</leafValues></_></weakClassifiers></_>
    <!-- stage 3 -->
    <_>
      <maxWeakCount>100</maxWeakCount>
      <stageThreshold>-4.5608639717102051e+00</stageThreshold>
      <weakClassifiers>
        <_>
          <internalNodes>
            0 -1 319 2.8711867053061724e-03</internalNodes>
          <leafValues>
            -9.7699999809265137e-01 5.8558559417724609e-01</leafValues></_>
        <_>
          <internalNodes>
            0 -1 79 -6.8173808977007866e-03</internalNodes>
          <leafValues>
            3.6977469921112061e-01 -9.9417173862457275e-01</leafValues></_>
        <_>
          <internalNodes>
            0 -1 356 -2.0312616229057312e-01</internalNodes>
          <leafValues>
            1.2571665644645691e-01 -9.7515529394149780e-01</leafValues></_>
        <_>
          <internalNodes>
            0 -1 235 -6.8411801476031542e-04</internalNodes>
          <leafValues>
            3.9206337928771973e-01 -7.4425476789474487e-01</leafValues></_>
        <_>
          <internalNodes>
            0 -1 497 -9.7492855275049806e-04</internalNodes>
          <leafValues>
            4.1256314516067505e-01 -5.8463388681411743e-01</leafValues></_>
        <_>
          <internalNodes>
            0 -1 311 -1.0103514790534973e-01</internalNodes>
          <leafValues>
            -9.6184623241424561e-01 1.7093007266521454e-01</leafValues></_>
        <_>
          <internalNodes>
            0 -1 357 -6.1714984476566315e-03</internalNodes>
          <leafValues>
            7.5185978412628174e-01 -3.2249522209167480e-01</leafValues></_>
        <_>
          <internalNodes>
            0 -1 545 8.1770966062322259e-04</internalNodes>
          <leafValues>
            -1.9326959550380707e-01 6.4276123046875000e-01</leafValues></_>
        <_>
          <internalNodes>
            0 -1 197 -2.0416168496012688e-02</internalNodes>
          <leafValues>
            -9.7377848625183105e-01 1.4867940545082092e-01</leafValues></_>
        <_>
          <internalNodes>
            0 -1 209 -1.1354880407452583e-03</internalNodes>
          <leafValues>
            6.7449116706848145e-01 -2.0399793982505798e-01</leafValues></_>
        <_>
          <internalNodes>
            0 -1 340 4.2719636112451553e-03</internalNodes>
          <leafValues>
            -1.3179522752761841e-01 6.3628804683685303e-01</leafValues></_>
        <_>
          <internalNodes>
            0 -1 233 5.3297309204936028e-03</internalNodes>
          <leafValues>
            1.0331422090530396e-01 -9.7066515684127808e-01</leafValues></_>
        <_>
          <internalNodes>
            0 -1 251 7.8397691249847412e-03</internalNodes>
          <leafValues>
            6.0353465378284454e-02 -8.5770630836486816e-01</leafValues></_>
        <_>
          <internalNodes>
            0 -1 587 -7.2519015520811081e-03</internalNodes>
          <leafValues>
            7.0274960994720459e-01 -1.1735911667346954e-01</leafValues></_>
        <_>
          <internalNodes>
            0 -1 300 -3.1810528598725796e-03</internalNodes>
          <leafValues>
            -7.7593624591827393e-01 1.0309833288192749e-01</leafValues></_>
        <_>
          <internalNodes>
            0 -1 589 3.0875562224537134e-03</internalNodes>
          <leafValues>
            -1.1298826336860657e-01 6.4561188220977783e-01</leafValues></_>
        <_>
          <internalNodes>
            0 -1 466 -7.1012022090144455e-05</internalNodes>
          <leafValues>
            -4.5195206999778748e-01 1.6699102520942688e-01</leafValues></_>
        <_>
          <internalNodes>
            0 -1 372 -6.8238573148846626e-03</internalNodes>
          <leafValues>
            7.1015530824661255e-01 -1.0215076804161072e-01</leafValues></_>
        <_>
          <internalNodes>
            0 -1 97 -1.2265464663505554e-01</internalNodes>
          <leafValues>
            -7.6627790927886963e-01 8.1880070269107819e-02</leafValues></_>
        <_>
          <internalNodes>
            0 -1 527 -3.2826857641339302e-03</internalNodes>
          <leafValues>
            7.3132425546646118e-01 -8.1678561866283417e-02</leafValues></_>
        <_>
          <internalNodes>
            0 -1 413 8.4123797714710236e-03</internalNodes>
          <leafValues>
            1.0693030059337616e-01 -5.7877320051193237e-01</leafValues></_>
        <_>
          <internalNodes>
            0 -1 234 1.1426616460084915e-02</internalNodes>
          <leafValues>
            -7.4791833758354187e-02 7.7811121940612793e-01</leafValues></_>
        <_>
          <internalNodes>
            0 -1 349 -1.0573150939308107e-04</internalNodes>
          <leafValues>
            -5.3073936700820923e-01 1.0981839150190353e-01</leafValues></_>
        <_>
          <internalNodes>
            0 -1 374 -1.9699921831488609e-03</internalNodes>
          <leafValues>
            6.0861521959304810e-01 -8.6408108472824097e-02</leafValues></_>
        <_>
          <internalNodes>
            0 -1 555 -3.4001976251602173e-02</internalNodes>
          <leafValues>
            -9.3034571409225464e-01 5.6852966547012329e-02</leafValues></_>
        <_>
          <internalNodes>
            0 -1 289 -1.3059093616902828e-02</internalNodes>
          <leafValues>
            7.2072345018386841e-01 -6.8314537405967712e-02</leafValues></_>
        <_>
          <internalNodes>
            0 -1 310 -3.9098384149838239e-05</internalNodes>
          <leafValues>
            -5.3792983293533325e-01 8.9529655873775482e-02</leafValues></_>
        <_>
          <internalNodes>
            0 -1 538 -2.1239437162876129e-02</internalNodes>
          <leafValues>
            7.0209997892379761e-01 -6.3032485544681549e-02</leafValues></_>
        <_>
          <internalNodes>
            0 -1 564 -3.0838409438729286e-03</internalNodes>
          <leafValues>
            -8.2282805442810059e-01 5.2414666861295700e-02</leafValues></_>
        <_>
          <internalNodes>
            0 -1 511 1.5781369293108582e-03</internalNodes>
          <leafValues>
            -5.5911056697368622e-02 6.8170160055160522e-01</leafValues></_>
        <_>
          <internalNodes>
            0 -1 605 2.4502696469426155e-03</internalNodes>
          <leafValues>
            5.7747498154640198e-02 -7.1956813335418701e-01</leafValues></_>
        <_>
          <internalNodes>
            0 -1 222 1.1324467137455940e-02</internalNodes>
          <leafValues>
            -5.7207334786653519e-02 5.8379584550857544e-01</leafValues></_>
        <_>
          <internalNodes>
            0 -1 48 2.2940985218156129e-05</internalNodes>
          <leafValues>
            6.6915117204189301e-02 -4.8094683885574341e-01</leafValues></_>
        <_>
          <internalNodes>
            0 -1 237 -1.8274777103215456e-03</internalNodes>
          <leafValues>
            6.5255242586135864e-01 -4.3399024754762650e-02</leafValues></_>
        <_>
          <internalNodes>
            0 -1 299 -5.8757816441357136e-03</internalNodes>
          <leafValues>
            -9.0071535110473633e-01 3.1259488314390182e-02</leafValues></_>
        <_>
          <internalNodes>
            0 -1 278 6.8261111155152321e-03</internalNodes>
          <leafValues>
            -3.8692124187946320e-02 6.2967759370803833e-01</leafValues></_>
        <_>
          <internalNodes>
            0 -1 287 -1.4897556975483894e-03</internalNodes>
          <leafValues>
            -3.3838528394699097e-01 6.9642439484596252e-02</leafValues></_>
        <_>
          <internalNodes>
            0 -1 526 -1.4681697357445955e-03</internalNodes>
          <leafValues>
            8.1478136777877808e-01 -3.4150704741477966e-02</leafValues></_>
        <_>
          <internalNodes>
            0 -1 215 8.7071172893047333e-03</internalNodes>
          <leafValues>
            -2.0007239654660225e-02 6.4821785688400269e-01</leafValues></_>
        <_>
          <internalNodes>
            0 -1 139 1.7235636711120605e-01</internalNodes>
          <leafValues>
            2.4251844733953476e-02 -8.5960179567337036e-01</leafValues></_>
        <_>
          <internalNodes>
            0 -1 35 5.3034303709864616e-04</internalNodes>
          <leafValues>
            1.6371361911296844e-02 -7.4791347980499268e-01</leafValues></_>
        <_>
          <internalNodes>
            0 -1 396 1.0033322032541037e-03</internalNodes>
          <leafValues>
            -2.8004478663206100e-02 6.6444391012191772e-01</leafValues></_>
        <_>
          <internalNodes>
            0 -1 281 -2.0378680899739265e-02</internalNodes>
          <leafValues>
            -6.0215866565704346e-01 2.9403839260339737e-02</leafValues></_>
        <_>
          <internalNodes>
            0 -1 507 -1.2433150783181190e-02</internalNodes>
          <leafValues>
            8.0109292268753052e-01 -1.9518336281180382e-02</leafValues></_>
        <_>
          <internalNodes>
            0 -1 88 6.6688973456621170e-03</internalNodes>
          <leafValues>
            1.6734845936298370e-02 -9.3148261308670044e-01</leafValues></_>
        <_>
          <internalNodes>
            0 -1 126 -4.8838602378964424e-03</internalNodes>
          <leafValues>
            -8.8964730501174927e-01 8.9897820726037025e-03</leafValues></_>
        <_>
          <internalNodes>
            0 -1 350 -1.7422874225303531e-03</internalNodes>
          <leafValues>
            6.4840602874755859e-01 -2.2336168214678764e-02</leafValues></_>
        <_>
          <internalNodes>
            0 -1 306 -8.0662118270993233e-03</internalNodes>
          <leafValues>
            -9.5910012722015381e-01 1.2767724692821503e-02</leafValues></_>
        <_>
          <internalNodes>
            0 -1 137 -1.2975405901670456e-02</internalNodes>
          <leafValues>
            7.7772915363311768e-01 -1.6697738319635391e-02</leafValues></_>
        <_>
          <internalNodes>
            0 -1 315 1.9828662276268005e-02</internalNodes>
          <leafValues>
            1.6626959666609764e-02 -6.8897885084152222e-01</leafValues></_>
        <_>
          <internalNodes>
            0 -1 558 -2.8626658022403717e-03</internalNodes>
          <leafValues>
            6.4045071601867676e-01 -1.4852123335003853e-02</leafValues></_>
        <_>
          <internalNodes>
            0 -1 314 1.2444579973816872e-02</internalNodes>
          <leafValues>
            1.3141146861016750e-02 -7.5255715847015381e-01</leafValues></_>
        <_>
          <internalNodes>
            0 -1 575 -4.4961259700357914e-03</internalNodes>
          <leafValues>
            -9.5845079421997070e-01 7.8554963693022728e-03</leafValues></_>
        <_>
          <internalNodes>
            0 -1 541 7.0533569669350982e-04</internalNodes>
          <leafValues>
            -1.7247870564460754e-02 5.8064877986907959e-01</leafValues></_>
        <_>
          <internalNodes>
            0 -1 603 4.3161830399185419e-04</internalNodes>
          <leafValues>
            1.0968326590955257e-02 -6.7577981948852539e-01</leafValues></_>
        <_>
          <internalNodes>
            0 -1 193 1.3712391257286072e-02</internalNodes>
          <leafValues>
            -8.8250562548637390e-03 8.0360484123229980e-01</leafValues></_>
        <_>
          <internalNodes>
            0 -1 405 3.7469755625352263e-05</internalNodes>
          <leafValues>
            1.3566963374614716e-02 -4.9810478091239929e-01</leafValues></_>
        <_>
          <internalNodes>
            0 -1 158 4.4699991121888161e-03</internalNodes>
          <leafValues>
            -6.4502675086259842e-03 9.2208009958267212e-01</leafValues></_>
        <_>
          <internalNodes>
            0 -1 368 -3.9806678891181946e-02</internalNodes>
          <leafValues>
            -9.2799520492553711e-01 6.8126628175377846e-03</leafValues></_>
        <_>
          <internalNodes>
            0 -1 291 2.4951441446319222e-04</internalNodes>
          <leafValues>
            -1.1631466448307037e-02 6.0284167528152466e-01</leafValues></_>
        <_>
          <internalNodes>
            0 -1 93 3.3689389965729788e-05</internalNodes>
          <leafValues>
            9.3001639470458031e-03 -5.8283549547195435e-01</leafValues></_>
        <_>
          <internalNodes>
            0 -1 82 7.4845002964138985e-03</internalNodes>
          <leafValues>
            -7.5943903066217899e-03 6.6257011890411377e-01</leafValues></_>
        <_>
          <internalNodes>
            0 -1 27 -9.9620237946510315e-02</internalNodes>
          <leafValues>
            -7.3634207248687744e-01 7.3822778649628162e-03</leafValues></_>
        <_>
          <internalNodes>
            0 -1 411 -9.2474068515002728e-04</internalNodes>
          <leafValues>
            7.2564280033111572e-01 -5.4371673613786697e-03</leafValues></_>
        <_>
          <internalNodes>
            0 -1 28 6.9589177146553993e-03</internalNodes>
          <leafValues>
            6.4487610943615437e-03 -6.8298667669296265e-01</leafValues></_>
        <_>
          <internalNodes>
            0 -1 130 -2.9168748296797276e-03</internalNodes>
          <leafValues>
            7.1077316999435425e-01 -4.1459072381258011e-03</leafValues></_>
        <_>
          <internalNodes>
            0 -1 420 -4.4596387306228280e-04</internalNodes>
          <leafValues>
            -6.3624691963195801e-01 5.3403796628117561e-03</leafValues></_>
        <_>
          <internalNodes>
            0 -1 419 2.8674276545643806e-03</internalNodes>
          <leafValues>
            -2.7734667528420687e-03 7.9305607080459595e-01</leafValues></_>
        <_>
          <internalNodes>
            0 -1 547 7.2471005842089653e-04</internalNodes>
          <leafValues>
            2.3397896438837051e-03 -9.4090932607650757e-01</leafValues></_>
        <_>
          <internalNodes>
            0 -1 500 8.5720146307721734e-04</internalNodes>
          <leafValues>
            -4.0924926288425922e-03 6.7151862382888794e-01</leafValues></_>
        <_>
          <internalNodes>
            0 -1 77 1.5505455434322357e-02</internalNodes>
          <leafValues>
            3.6247745156288147e-03 -9.7256791591644287e-01</leafValues></_>
        <_>
          <internalNodes>
            0 -1 429 -1.7392919398844242e-03</internalNodes>
          <leafValues>
            7.1371030807495117e-01 -3.1433117110282183e-03</leafValues></_>
        <_>
          <internalNodes>
            0 -1 371 2.2726664610672742e-05</internalNodes>
          <leafValues>
            4.2554973624646664e-03 -7.0710307359695435e-01</leafValues></_>
        <_>
          <internalNodes>
            0 -1 533 3.2094842754304409e-04</internalNodes>
          <leafValues>
            -8.2321109948679805e-04 8.0288290977478027e-01</leafValues></_>
        <_>
          <internalNodes>
            0 -1 524 -1.2342989211902022e-03</internalNodes>
          <leafValues>
            -7.5973814725875854e-01 1.5711049782112241e-03</leafValues></_>
        <_>
          <internalNodes>
            0 -1 361 -4.3616132461465895e-04</internalNodes>
          <leafValues>
            8.7007403373718262e-01 -2.0933679770678282e-03</leafValues></_>
        <_>
          <internalNodes>
            0 -1 312 -4.9865460023283958e-03</internalNodes>
          <leafValues>
            -7.1775442361831665e-01 2.3164143785834312e-03</leafValues></_>
        <_>
          <internalNodes>
            0 -1 462 -7.0809895987622440e-05</internalNodes>
          <leafValues>
            7.3430746793746948e-01 -1.6241513658314943e-03</leafValues></_>
        <_>
          <internalNodes>
            0 -1 213 9.6712280064821243e-03</internalNodes>
          <leafValues>
            1.9082801882177591e-03 -7.3915612697601318e-01</leafValues></_>
        <_>
          <internalNodes>
            0 -1 301 3.0426310840994120e-03</internalNodes>
          <leafValues>
            -1.5424019657075405e-03 8.1258749961853027e-01</leafValues></_>
        <_>
          <internalNodes>
            0 -1 512 1.4446069144469220e-05</internalNodes>
          <leafValues>
            1.7044305568560958e-03 -7.5223970413208008e-01</leafValues></_>
        <_>
          <internalNodes>
            0 -1 223 -4.5088171958923340e-02</internalNodes>
          <leafValues>
            8.9594960212707520e-01 -4.6346907038241625e-04</leafValues></_>
        <_>
          <internalNodes>
            0 -1 186 -2.6381494477391243e-02</internalNodes>
          <leafValues>
            -9.2507535219192505e-01 9.8897097632288933e-04</leafValues></_>
        <_>
          <internalNodes>
            0 -1 216 -6.5912422724068165e-03</internalNodes>
          <leafValues>
            8.9839577674865723e-01 -6.6031038295477629e-04</leafValues></_>
        <_>
          <internalNodes>
            0 -1 178 -1.8181331688538194e-04</internalNodes>
          <leafValues>
            -8.7627780437469482e-01 7.7614258043467999e-04</leafValues></_>
        <_>
          <internalNodes>
            0 -1 182 -1.4644414186477661e-02</internalNodes>
          <leafValues>
            9.2238134145736694e-01 -8.6766015738248825e-04</leafValues></_>
        <_>
          <internalNodes>
            0 -1 64 -2.9528442610171624e-05</internalNodes>
          <leafValues>
            -8.9356589317321777e-01 1.0298159904778004e-03</leafValues></_>
        <_>
          <internalNodes>
            0 -1 33 -5.6881480850279331e-04</internalNodes>
          <leafValues>
            9.6387511491775513e-01 -3.8818601751700044e-04</leafValues></_>
        <_>
          <internalNodes>
            0 -1 96 -6.2133556639309973e-05</internalNodes>
          <leafValues>
            -9.4246941804885864e-01 3.6655637086369097e-04</leafValues></_>
        <_>
          <internalNodes>
            0 -1 25 -1.1343990266323090e-01</internalNodes>
          <leafValues>
            9.6286761760711670e-01 -1.1460512905614451e-04</leafValues></_>
        <_>
          <internalNodes>
            0 -1 9 -1.5072975307703018e-02</internalNodes>
          <leafValues>
            -9.4562441110610962e-01 1.8173894204664975e-04</leafValues></_>
        <_>
          <internalNodes>
            0 -1 7 -4.2061083018779755e-02</internalNodes>
          <leafValues>
            9.6249127388000488e-01 -5.4910400649532676e-05</leafValues></_>
        <_>
          <internalNodes>
            0 -1 179 -7.6363014522939920e-04</internalNodes>
          <leafValues>
            -9.6196871995925903e-01 5.1280741899972782e-05</leafValues></_>
        <_>
          <internalNodes>
            0 -1 2 -2.9382840148173273e-04</internalNodes>
          <leafValues>
            9.5975244045257568e-01 -5.5860560678411275e-05</leafValues></_>
        <_>
          <internalNodes>
            0 -1 6 -4.2482875287532806e-03</internalNodes>
          <leafValues>
            -9.6616536378860474e-01 5.9490223065949976e-05</leafValues></_>
        <_>
          <internalNodes>
            0 -1 2 -3.5678756830748171e-05</internalNodes>
          <leafValues>
            9.6056300401687622e-01 7.1259350416935652e-14</leafValues></_>
        <_>
          <internalNodes>
            0 -1 2 -1.7057321383617818e-04</internalNodes>
          <leafValues>
            -9.6598875522613525e-01 -1.6220484428276088e-13</leafValues></_>
        <_>
          <internalNodes>
            0 -1 598 -9.7363186068832874e-04</internalNodes>
          <leafValues>
            9.8102432489395142e-01 1.1990350321866572e-04</leafValues></_>
        <_>
          <internalNodes>
            0 -1 133 -4.0511690080165863e-02</internalNodes>
          <leafValues>
            -9.6176075935363770e-01 7.1112051955424249e-05</leafValues></_>
        <_>
          <internalNodes>
            0 -1 12 -6.9980397820472717e-02</internalNodes>
          <leafValues>
            9.8096013069152832e-01 -2.4600277538411319e-04</leafValues></_></weakClassifiers></_>
    <!-- stage 4 -->
    <_>
      <maxWeakCount>100</maxWeakCount>
      <stageThreshold>-4.5902495384216309e+00</stageThreshold>
      <weakClassifiers>
        <_>
          <internalNodes>
            0 -1 390 -1.3143884018063545e-02</internalNodes>
          <leafValues>
            4.5430463552474976e-01 -9.9877548217773438e-01</leafValues></_>
        <_>
          <internalNodes>
            0 -1 226 -8.9995767921209335e-03</internalNodes>
          <leafValues>
            5.1506829261779785e-01 -9.6326810121536255e-01</leafValues></_>
        <_>
          <internalNodes>
            0 -1 50 -1.5391871333122253e-02</internalNodes>
          <leafValues>
            2.3943588137626648e-01 -9.8884582519531250e-01</leafValues></_>
        <_>
          <internalNodes>
            0 -1 530 1.5496801352128386e-03</internalNodes>
          <leafValues>
            -7.0863193273544312e-01 5.3154039382934570e-01</leafValues></_>
        <_>
          <internalNodes>
            0 -1 272 -1.7355680465698242e-03</internalNodes>
          <leafValues>
            6.0804980993270874e-01 -5.2327221632003784e-01</leafValues></_>
        <_>
          <internalNodes>
            0 -1 590 -1.7039540689438581e-03</internalNodes>
          <leafValues>
            6.8418455123901367e-01 -2.7443727850914001e-01</leafValues></_>
        <_>
          <internalNodes>
            0 -1 176 -4.4379020109772682e-03</internalNodes>
          <leafValues>
            8.4419965744018555e-01 -1.5787845849990845e-01</leafValues></_>
        <_>
          <internalNodes>
            0 -1 577 -7.0838062092661858e-03</internalNodes>
          <leafValues>
            8.4611463546752930e-01 -8.1775657832622528e-02</leafValues></_>
        <_>
          <internalNodes>
            0 -1 536 6.6515523940324783e-03</internalNodes>
          <leafValues>
            1.4686542749404907e-01 -7.5964057445526123e-01</leafValues></_>
        <_>
          <internalNodes>
            0 -1 154 6.4429976046085358e-03</internalNodes>
          <leafValues>
            -1.3746339082717896e-01 7.9940694570541382e-01</leafValues></_>
        <_>
          <internalNodes>
            0 -1 26 -1.3138915528543293e-04</internalNodes>
          <leafValues>
            -6.0697394609451294e-01 1.7994508147239685e-01</leafValues></_>
        <_>
          <internalNodes>
            0 -1 8 -1.0530821979045868e-02</internalNodes>
          <leafValues>
            6.8263435363769531e-01 -1.4866760373115540e-01</leafValues></_>
        <_>
          <internalNodes>
            0 -1 177 -1.1642849072813988e-02</internalNodes>
          <leafValues>
            7.7126872539520264e-01 -9.3885354697704315e-02</leafValues></_>
        <_>
          <internalNodes>
            0 -1 150 -4.5356992632150650e-04</internalNodes>
          <leafValues>
            -6.9719928503036499e-01 1.3686391711235046e-01</leafValues></_>
        <_>
          <internalNodes>
            0 -1 471 -2.3699938319623470e-03</internalNodes>
          <leafValues>
            4.8372706770896912e-01 -1.4024266600608826e-01</leafValues></_>
        <_>
          <internalNodes>
            0 -1 394 -5.2703889086842537e-03</internalNodes>
          <leafValues>
            -5.8714252710342407e-01 1.4221729338169098e-01</leafValues></_>
        <_>
          <internalNodes>
            0 -1 452 2.1937243640422821e-02</internalNodes>
          <leafValues>
            -8.6197659373283386e-02 7.5510531663894653e-01</leafValues></_>
        <_>
          <internalNodes>
            0 -1 84 -2.7495909016579390e-03</internalNodes>
          <leafValues>
            -8.8365852832794189e-01 7.8949332237243652e-02</leafValues></_>
        <_>
          <internalNodes>
            0 -1 60 6.8016657605767250e-03</internalNodes>
          <leafValues>
            -8.3585053682327271e-02 6.8236052989959717e-01</leafValues></_>
        <_>
          <internalNodes>
            0 -1 568 2.5868229568004608e-04</internalNodes>
          <leafValues>
            9.2677354812622070e-02 -6.5375632047653198e-01</leafValues></_>
        <_>
          <internalNodes>
            0 -1 45 1.2608140241354704e-03</internalNodes>
          <leafValues>
            3.9105381816625595e-02 -8.7592244148254395e-01</leafValues></_>
        <_>
          <internalNodes>
            0 -1 453 -2.1484636235982180e-03</internalNodes>
          <leafValues>
            5.6468093395233154e-01 -8.7407998740673065e-02</leafValues></_>
        <_>
          <internalNodes>
            0 -1 437 -2.2144662216305733e-03</internalNodes>
          <leafValues>
            -9.1471594572067261e-01 5.5303987115621567e-02</leafValues></_>
        <_>
          <internalNodes>
            0 -1 468 1.9695125520229340e-03</internalNodes>
          <leafValues>
            -7.3249705135822296e-02 6.4843237400054932e-01</leafValues></_>
        <_>
          <internalNodes>
            0 -1 316 -4.0136915631592274e-03</internalNodes>
          <leafValues>
            -3.7608459591865540e-01 1.2836122512817383e-01</leafValues></_>
        <_>
          <internalNodes>
            0 -1 412 -1.6224310966208577e-03</internalNodes>
          <leafValues>
            6.4340645074844360e-01 -7.6182805001735687e-02</leafValues></_>
        <_>
          <internalNodes>
            0 -1 399 -4.7874599695205688e-03</internalNodes>
          <leafValues>
            -9.5311635732650757e-01 4.2503505945205688e-02</leafValues></_>
        <_>
          <internalNodes>
            0 -1 334 -5.8423979207873344e-03</internalNodes>
          <leafValues>
            7.2290450334548950e-01 -5.4551389068365097e-02</leafValues></_>
        <_>
          <internalNodes>
            0 -1 564 2.8878459706902504e-03</internalNodes>
          <leafValues>
            4.3462872505187988e-02 -8.2857018709182739e-01</leafValues></_>
        <_>
          <internalNodes>
            0 -1 131 -8.8218636810779572e-03</internalNodes>
          <leafValues>
            7.5160175561904907e-01 -4.4180676341056824e-02</leafValues></_>
        <_>
          <internalNodes>
            0 -1 220 3.2179400324821472e-02</internalNodes>
          <leafValues>
            3.6984533071517944e-02 -8.0728989839553833e-01</leafValues></_>
        <_>
          <internalNodes>
            0 -1 217 -5.2040141075849533e-02</internalNodes>
          <leafValues>
            -9.2779207229614258e-01 1.6928311437368393e-02</leafValues></_>
        <_>
          <internalNodes>
            0 -1 565 2.2028756793588400e-03</internalNodes>
          <leafValues>
            -4.2669411748647690e-02 6.6322970390319824e-01</leafValues></_>
        <_>
          <internalNodes>
            0 -1 40 5.4207490757107735e-04</internalNodes>
          <leafValues>
            3.0724208801984787e-02 -8.2619577646255493e-01</leafValues></_>
        <_>
          <internalNodes>
            0 -1 479 -2.4991722311824560e-03</internalNodes>
          <leafValues>
            6.5386849641799927e-01 -3.9199370890855789e-02</leafValues></_>
        <_>
          <internalNodes>
            0 -1 318 3.8114427588880062e-03</internalNodes>
          <leafValues>
            3.5643037408590317e-02 -6.2444186210632324e-01</leafValues></_>
        <_>
          <internalNodes>
            0 -1 465 1.8917620182037354e-03</internalNodes>
          <leafValues>
            1.4287970028817654e-02 -9.0347802639007568e-01</leafValues></_>
        <_>
          <internalNodes>
            0 -1 430 -3.8819974288344383e-03</internalNodes>
          <leafValues>
            7.1229624748229980e-01 -3.1765662133693695e-02</leafValues></_>
        <_>
          <internalNodes>
            0 -1 141 -5.4816644638776779e-02</internalNodes>
          <leafValues>
            -9.1251009702682495e-01 2.0337605848908424e-02</leafValues></_>
        <_>
          <internalNodes>
            0 -1 552 -1.5490408986806870e-03</internalNodes>
          <leafValues>
            6.5247690677642822e-01 -2.3680673912167549e-02</leafValues></_>
        <_>
          <internalNodes>
            0 -1 135 2.9753944836556911e-03</internalNodes>
          <leafValues>
            2.6516307145357132e-02 -6.1064058542251587e-01</leafValues></_>
        <_>
          <internalNodes>
            0 -1 421 -2.0031359046697617e-02</internalNodes>
          <leafValues>
            7.6390504837036133e-01 -1.9059199839830399e-02</leafValues></_>
        <_>
          <internalNodes>
            0 -1 265 1.3232389464974403e-03</internalNodes>
          <leafValues>
            2.0007938146591187e-02 -6.7578566074371338e-01</leafValues></_>
        <_>
          <internalNodes>
            0 -1 488 7.8789563849568367e-03</internalNodes>
          <leafValues>
            -1.6863143071532249e-02 7.6241624355316162e-01</leafValues></_>
        <_>
          <internalNodes>
            0 -1 274 -1.9690975546836853e-02</internalNodes>
          <leafValues>
            -8.2815337181091309e-01 1.6403846442699432e-02</leafValues></_>
        <_>
          <internalNodes>
            0 -1 157 -3.0012112110853195e-03</internalNodes>
          <leafValues>
            7.2653663158416748e-01 -1.5612426213920116e-02</leafValues></_>
        <_>
          <internalNodes>
            0 -1 352 9.3136902432888746e-04</internalNodes>
          <leafValues>
            1.3813021592795849e-02 -7.2911024093627930e-01</leafValues></_>
        <_>
          <internalNodes>
            0 -1 187 2.3036261554807425e-03</internalNodes>
          <leafValues>
            -1.3807740993797779e-02 6.0243129730224609e-01</leafValues></_>
        <_>
          <internalNodes>
            0 -1 475 4.4051986187696457e-03</internalNodes>
          <leafValues>
            1.0008181445300579e-02 -9.7229558229446411e-01</leafValues></_>
        <_>
          <internalNodes>
            0 -1 19 8.6265997961163521e-03</internalNodes>
          <leafValues>
            6.9763269275426865e-03 -7.7701014280319214e-01</leafValues></_>
        <_>
          <internalNodes>
            0 -1 480 8.5301452782005072e-04</internalNodes>
          <leafValues>
            -9.8974229767918587e-03 7.9461818933486938e-01</leafValues></_>
        <_>
          <internalNodes>
            0 -1 132 -8.9167893747799098e-05</internalNodes>
          <leafValues>
            -4.9509909749031067e-01 1.4272817410528660e-02</leafValues></_>
        <_>
          <internalNodes>
            0 -1 518 -5.5032427189871669e-04</internalNodes>
          <leafValues>
            6.8468827009201050e-01 -1.2339065782725811e-02</leafValues></_>
        <_>
          <internalNodes>
            0 -1 37 -1.5194827690720558e-02</internalNodes>
          <leafValues>
            -9.6031850576400757e-01 7.4490234255790710e-03</leafValues></_>
        <_>
          <internalNodes>
            0 -1 127 -9.5697110518813133e-03</internalNodes>
          <leafValues>
            8.9550530910491943e-01 -7.3253330774605274e-03</leafValues></_>
        <_>
          <internalNodes>
            0 -1 174 2.7762979269027710e-02</internalNodes>
          <leafValues>
            7.2650196962058544e-03 -8.6903429031372070e-01</leafValues></_>
        <_>
          <internalNodes>
            0 -1 505 1.0459568351507187e-02</internalNodes>
          <leafValues>
            -6.6532264463603497e-03 8.3029246330261230e-01</leafValues></_>
        <_>
          <internalNodes>
            0 -1 168 3.1942257191985846e-04</internalNodes>
          <leafValues>
            7.4482290074229240e-03 -5.9453219175338745e-01</leafValues></_>
        <_>
          <internalNodes>
            0 -1 395 -8.3148234989494085e-04</internalNodes>
          <leafValues>
            7.1076899766921997e-01 -6.1076255515217781e-03</leafValues></_>
        <_>
          <internalNodes>
            0 -1 189 -4.9509659409523010e-02</internalNodes>
          <leafValues>
            -5.0765764713287354e-01 7.8185815364122391e-03</leafValues></_>
        <_>
          <internalNodes>
            0 -1 602 -2.5364951579831541e-04</internalNodes>
          <leafValues>
            7.2475814819335938e-01 -5.6289359927177429e-03</leafValues></_>
        <_>
          <internalNodes>
            0 -1 65 4.0784128941595554e-03</internalNodes>
          <leafValues>
            3.6905386950820684e-03 -7.0137542486190796e-01</leafValues></_>
        <_>
          <internalNodes>
            0 -1 298 -1.7713578417897224e-02</internalNodes>
          <leafValues>
            9.1000396013259888e-01 -2.7474842499941587e-03</leafValues></_>
        <_>
          <internalNodes>
            0 -1 210 -2.4934980319812894e-04</internalNodes>
          <leafValues>
            -6.4612346887588501e-01 3.8031388539820910e-03</leafValues></_>
        <_>
          <internalNodes>
            0 -1 294 5.8431532233953476e-03</internalNodes>
          <leafValues>
            -2.7635064907371998e-03 8.5650533437728882e-01</leafValues></_>
        <_>
          <internalNodes>
            0 -1 397 1.0347848292440176e-03</internalNodes>
          <leafValues>
            1.7476772191002965e-03 -9.3239343166351318e-01</leafValues></_>
        <_>
          <internalNodes>
            0 -1 447 9.7322352230548859e-03</internalNodes>
          <leafValues>
            -2.2076379973441362e-03 1.</leafValues></_>
        <_>
          <internalNodes>
            0 -1 450 4.3898570584133267e-04</internalNodes>
          <leafValues>
            2.8120630886405706e-03 -6.5667378902435303e-01</leafValues></_>
        <_>
          <internalNodes>
            0 -1 542 4.9815168604254723e-03</internalNodes>
          <leafValues>
            -1.6773187089711428e-03 8.2013261318206787e-01</leafValues></_>
        <_>
          <internalNodes>
            0 -1 369 2.0776700694113970e-03</internalNodes>
          <leafValues>
            1.3196765212342143e-03 -7.3511350154876709e-01</leafValues></_>
        <_>
          <internalNodes>
            0 -1 73 3.0851154588162899e-04</internalNodes>
          <leafValues>
            -1.4919691020622849e-03 8.5897386074066162e-01</leafValues></_>
        <_>
          <internalNodes>
            0 -1 69 7.5002884841524065e-05</internalNodes>
          <leafValues>
            1.6995485639199615e-03 -6.6447055339813232e-01</leafValues></_>
        <_>
          <internalNodes>
            0 -1 175 -9.1456789523363113e-03</internalNodes>
          <leafValues>
            8.0440336465835571e-01 -1.1656051501631737e-03</leafValues></_>
        <_>
          <internalNodes>
            0 -1 172 -5.6402776390314102e-03</internalNodes>
          <leafValues>
            -7.2539108991622925e-01 1.2372363125905395e-03</leafValues></_>
        <_>
          <internalNodes>
            0 -1 263 4.7570627066306770e-04</internalNodes>
          <leafValues>
            -9.1146794147789478e-04 7.9140007495880127e-01</leafValues></_>
        <_>
          <internalNodes>
            0 -1 417 -4.8583940952084959e-05</internalNodes>
          <leafValues>
            -8.8513308763504028e-01 9.6153101185336709e-04</leafValues></_>
        <_>
          <internalNodes>
            0 -1 443 -1.0001301998272538e-03</internalNodes>
          <leafValues>
            8.3739238977432251e-01 -6.1037990963086486e-04</leafValues></_>
        <_>
          <internalNodes>
            0 -1 113 -1.9570142030715942e-02</internalNodes>
          <leafValues>
            -9.4381380081176758e-01 -1.3772853708360344e-04</leafValues></_>
        <_>
          <internalNodes>
            0 -1 52 -4.5646049082279205e-02</internalNodes>
          <leafValues>
            8.8573414087295532e-01 -9.3458773335441947e-04</leafValues></_>
        <_>
          <internalNodes>
            0 -1 47 -2.9314295388758183e-03</internalNodes>
          <leafValues>
            -8.5946363210678101e-01 1.2225313112139702e-03</leafValues></_>
        <_>
          <internalNodes>
            0 -1 129 -8.4613952785730362e-03</internalNodes>
          <leafValues>
            9.6851330995559692e-01 -5.0308858044445515e-04</leafValues></_>
        <_>
          <internalNodes>
            0 -1 286 -3.0894917435944080e-03</internalNodes>
          <leafValues>
            -8.3558470010757446e-01 6.6157605033367872e-04</leafValues></_>
        <_>
          <internalNodes>
            0 -1 273 -9.2275283532217145e-04</internalNodes>
          <leafValues>
            9.4213396310806274e-01 -6.8480824120342731e-04</leafValues></_>
        <_>
          <internalNodes>
            0 -1 58 -7.3207127861678600e-03</internalNodes>
          <leafValues>
            -9.3004775047302246e-01 4.6016351552680135e-04</leafValues></_>
        <_>
          <internalNodes>
            0 -1 335 -6.1842091381549835e-03</internalNodes>
          <leafValues>
            9.3330669403076172e-01 -2.9303564224392176e-04</leafValues></_>
        <_>
          <internalNodes>
            0 -1 467 -1.3028697576373816e-03</internalNodes>
          <leafValues>
            -9.5608216524124146e-01 2.6806647656485438e-04</leafValues></_>
        <_>
          <internalNodes>
            0 -1 46 -1.8146584043279290e-03</internalNodes>
          <leafValues>
            9.5457798242568970e-01 -1.4288337843026966e-04</leafValues></_>
        <_>
          <internalNodes>
            0 -1 446 -4.2721751378849149e-04</internalNodes>
          <leafValues>
            -9.8098766803741455e-01 1.3368531654123217e-04</leafValues></_>
        <_>
          <internalNodes>
            0 -1 2 -5.9986428823322058e-05</internalNodes>
          <leafValues>
            9.5259344577789307e-01 -7.9060810094233602e-05</leafValues></_>
        <_>
          <internalNodes>
            0 -1 10 -3.9367633871734142e-03</internalNodes>
          <leafValues>
            -9.8161900043487549e-01 5.1511873607523739e-05</leafValues></_>
        <_>
          <internalNodes>
            0 -1 2 -5.9986428823322058e-05</internalNodes>
          <leafValues>
            9.7724705934524536e-01 1.7174672125555741e-14</leafValues></_>
        <_>
          <internalNodes>
            0 -1 2 -3.5913039027946070e-05</internalNodes>
          <leafValues>
            -9.8131859302520752e-01 6.6331075560584901e-14</leafValues></_>
        <_>
          <internalNodes>
            0 -1 2 -5.9986428823322058e-05</internalNodes>
          <leafValues>
            9.7742950916290283e-01 7.9851835592999881e-14</leafValues></_>
        <_>
          <internalNodes>
            0 -1 2 -3.5913039027946070e-05</internalNodes>
          <leafValues>
            -9.8102921247482300e-01 -1.3091617904765346e-13</leafValues></_>
        <_>
          <internalNodes>
            0 -1 2 -5.9986428823322058e-05</internalNodes>
          <leafValues>
            9.7758960723876953e-01 -5.0929283204180931e-15</leafValues></_>
        <_>
          <internalNodes>
            0 -1 2 -3.5913039027946070e-05</internalNodes>
          <leafValues>
            -9.8089951276779175e-01 1.7770385315162007e-14</leafValues></_>
        <_>
          <internalNodes>
            0 -1 2 -5.9986428823322058e-05</internalNodes>
          <leafValues>
            9.7773581743240356e-01 9.5045289184598342e-14</leafValues></_>
        <_>
          <internalNodes>
            0 -1 2 -3.5913039027946070e-05</internalNodes>
          <leafValues>
            -9.8077940940856934e-01 3.1520342298708634e-14</leafValues></_>
        <_>
          <internalNodes>
            0 -1 2 -5.9986428823322058e-05</internalNodes>
          <leafValues>
            9.7786939144134521e-01 -1.5141182849610219e-13</leafValues></_>
        <_>
          <internalNodes>
            0 -1 2 -3.5913039027946070e-05</internalNodes>
          <leafValues>
            -9.8051697015762329e-01 1.2606541787037184e-13</leafValues></_></weakClassifiers></_>
    <!-- stage 5 -->
    <_>
      <maxWeakCount>100</maxWeakCount>
      <stageThreshold>-4.5563073158264160e+00</stageThreshold>
      <weakClassifiers>
        <_>
          <internalNodes>
            0 -1 194 -1.3868922367691994e-02</internalNodes>
          <leafValues>
            3.6458334326744080e-01 -9.6753180027008057e-01</leafValues></_>
        <_>
          <internalNodes>
            0 -1 506 -1.7862202599644661e-02</internalNodes>
          <leafValues>
            2.4188069999217987e-01 -9.9620020389556885e-01</leafValues></_>
        <_>
          <internalNodes>
            0 -1 434 -4.5926845632493496e-03</internalNodes>
          <leafValues>
            6.5600410103797913e-02 -9.8220086097717285e-01</leafValues></_>
        <_>
          <internalNodes>
            0 -1 387 -1.2561654672026634e-02</internalNodes>
          <leafValues>
            4.1150206327438354e-01 -6.3675475120544434e-01</leafValues></_>
        <_>
          <internalNodes>
            0 -1 211 -3.4367453772574663e-03</internalNodes>
          <leafValues>
            5.7584249973297119e-01 -3.8418498635292053e-01</leafValues></_>
        <_>
          <internalNodes>
            0 -1 246 6.3777035102248192e-03</internalNodes>
          <leafValues>
            -1.9545346498489380e-01 7.3391878604888916e-01</leafValues></_>
        <_>
          <internalNodes>
            0 -1 214 6.4862589351832867e-03</internalNodes>
          <leafValues>
            -1.6727279126644135e-01 8.3583146333694458e-01</leafValues></_>
        <_>
          <internalNodes>
            0 -1 513 1.9415866583585739e-02</internalNodes>
          <leafValues>
            -1.5942649543285370e-01 6.6386085748672485e-01</leafValues></_>
        <_>
          <internalNodes>
            0 -1 259 4.4412471354007721e-02</internalNodes>
          <leafValues>
            -1.1525797843933105e-01 8.6600548028945923e-01</leafValues></_>
        <_>
          <internalNodes>
            0 -1 392 -1.8428385257720947e-01</internalNodes>
          <leafValues>
            -8.7433105707168579e-01 1.7587883770465851e-01</leafValues></_>
        <_>
          <internalNodes>
            0 -1 333 9.1803837567567825e-03</internalNodes>
          <leafValues>
            -1.4625042676925659e-01 7.9896324872970581e-01</leafValues></_>
        <_>
          <internalNodes>
            0 -1 442 -5.6631346233189106e-03</internalNodes>
          <leafValues>
            6.6778552532196045e-01 -1.0220679640769958e-01</leafValues></_>
        <_>
          <internalNodes>
            0 -1 266 1.4589924830943346e-03</internalNodes>
          <leafValues>
            1.1840471625328064e-01 -8.3180922269821167e-01</leafValues></_>
        <_>
          <internalNodes>
            0 -1 162 -9.8365284502506256e-03</internalNodes>
          <leafValues>
            7.2031009197235107e-01 -1.3361051678657532e-01</leafValues></_>
        <_>
          <internalNodes>
            0 -1 267 -1.0312801459804177e-03</internalNodes>
          <leafValues>
            -6.5141540765762329e-01 1.4084030687808990e-01</leafValues></_>
        <_>
          <internalNodes>
            0 -1 115 1.0266023688018322e-02</internalNodes>
          <leafValues>
            -1.1264606565237045e-01 8.3640652894973755e-01</leafValues></_>
        <_>
          <internalNodes>
            0 -1 305 7.7508017420768738e-03</internalNodes>
          <leafValues>
            1.0727754980325699e-01 -9.0732550621032715e-01</leafValues></_>
        <_>
          <internalNodes>
            0 -1 572 1.2395106256008148e-02</internalNodes>
          <leafValues>
            -1.1208257824182510e-01 7.3752158880233765e-01</leafValues></_>
        <_>
          <internalNodes>
            0 -1 309 2.2340316791087389e-03</internalNodes>
          <leafValues>
            1.0483282059431076e-01 -7.3470044136047363e-01</leafValues></_>
        <_>
          <internalNodes>
            0 -1 410 -1.0397987440228462e-02</internalNodes>
          <leafValues>
            7.3312813043594360e-01 -9.7817443311214447e-02</leafValues></_>
        <_>
          <internalNodes>
            0 -1 329 -2.3381654173135757e-03</internalNodes>
          <leafValues>
            -8.9477670192718506e-01 8.4929086267948151e-02</leafValues></_>
        <_>
          <internalNodes>
            0 -1 118 3.5111743956804276e-02</internalNodes>
          <leafValues>
            -1.2408581376075745e-01 5.4916328191757202e-01</leafValues></_>
        <_>
          <internalNodes>
            0 -1 124 -3.2624306622892618e-03</internalNodes>
          <leafValues>
            -7.2215461730957031e-01 9.3425191938877106e-02</leafValues></_>
        <_>
          <internalNodes>
            0 -1 159 -4.2846621945500374e-03</internalNodes>
          <leafValues>
            6.2733232975006104e-01 -1.0058141499757767e-01</leafValues></_>
        <_>
          <internalNodes>
            0 -1 85 -2.6021488010883331e-03</internalNodes>
          <leafValues>
            -7.8174149990081787e-01 8.2255773246288300e-02</leafValues></_>
        <_>
          <internalNodes>
            0 -1 134 9.5757588744163513e-02</internalNodes>
          <leafValues>
            5.7580176740884781e-02 -6.8805450201034546e-01</leafValues></_>
        <_>
          <internalNodes>
            0 -1 358 -6.4235567115247250e-03</internalNodes>
          <leafValues>
            5.7587462663650513e-01 -9.9467493593692780e-02</leafValues></_>
        <_>
          <internalNodes>
            0 -1 190 -1.0240942239761353e-02</internalNodes>
          <leafValues>
            -5.5792498588562012e-01 1.0581757128238678e-01</leafValues></_>
        <_>
          <internalNodes>
            0 -1 517 4.7082589007914066e-03</internalNodes>
          <leafValues>
            -1.0450865328311920e-01 5.1408767700195313e-01</leafValues></_>
        <_>
          <internalNodes>
            0 -1 380 -7.7055557630956173e-04</internalNodes>
          <leafValues>
            -8.7492978572845459e-01 6.7292064428329468e-02</leafValues></_>
        <_>
          <internalNodes>
            0 -1 309 -3.1441270839422941e-03</internalNodes>
          <leafValues>
            -8.8565093278884888e-01 3.6704871803522110e-02</leafValues></_>
        <_>
          <internalNodes>
            0 -1 445 1.6211839392781258e-03</internalNodes>
          <leafValues>
            -7.6003849506378174e-02 6.6310769319534302e-01</leafValues></_>
        <_>
          <internalNodes>
            0 -1 231 -8.6811585351824760e-03</internalNodes>
          <leafValues>
            -9.8628127574920654e-01 5.2667718380689621e-02</leafValues></_>
        <_>
          <internalNodes>
            0 -1 42 -3.6975273396819830e-03</internalNodes>
          <leafValues>
            -8.6062526702880859e-01 3.1342782080173492e-02</leafValues></_>
        <_>
          <internalNodes>
            0 -1 343 7.0518935099244118e-03</internalNodes>
          <leafValues>
            -7.8443251550197601e-02 5.8555787801742554e-01</leafValues></_>
        <_>
          <internalNodes>
            0 -1 478 -3.3993381075561047e-03</internalNodes>
          <leafValues>
            -9.3359255790710449e-01 4.8599932342767715e-02</leafValues></_>
        <_>
          <internalNodes>
            0 -1 66 7.9249944537878036e-03</internalNodes>
          <leafValues>
            3.0515685677528381e-02 -7.9370325803756714e-01</leafValues></_>
        <_>
          <internalNodes>
            0 -1 486 -1.8288445426151156e-03</internalNodes>
          <leafValues>
            5.2255165576934814e-01 -7.8430481255054474e-02</leafValues></_>
        <_>
          <internalNodes>
            0 -1 539 -3.3958880230784416e-03</internalNodes>
          <leafValues>
            -8.8977998495101929e-01 4.3742455542087555e-02</leafValues></_>
        <_>
          <internalNodes>
            0 -1 283 -3.4128174185752869e-02</internalNodes>
          <leafValues>
            -8.4907627105712891e-01 2.3085173219442368e-02</leafValues></_>
        <_>
          <internalNodes>
            0 -1 500 -1.2323756236582994e-03</internalNodes>
          <leafValues>
            5.7570904493331909e-01 -6.0652140527963638e-02</leafValues></_>
        <_>
          <internalNodes>
            0 -1 407 1.3428164493234362e-05</internalNodes>
          <leafValues>
            6.3694082200527191e-02 -4.9040210247039795e-01</leafValues></_>
        <_>
          <internalNodes>
            0 -1 389 -5.6287152692675591e-03</internalNodes>
          <leafValues>
            5.9569358825683594e-01 -5.3851086646318436e-02</leafValues></_>
        <_>
          <internalNodes>
            0 -1 83 3.5961274988949299e-03</internalNodes>
          <leafValues>
            4.6307481825351715e-02 -7.1045279502868652e-01</leafValues></_>
        <_>
          <internalNodes>
            0 -1 53 -5.2008852362632751e-03</internalNodes>
          <leafValues>
            -9.8203825950622559e-01 2.1744308993220329e-02</leafValues></_>
        <_>
          <internalNodes>
            0 -1 433 -4.6457545831799507e-03</internalNodes>
          <leafValues>
            6.1321699619293213e-01 -4.9794130027294159e-02</leafValues></_>
        <_>
          <internalNodes>
            0 -1 391 3.7273268681019545e-03</internalNodes>
          <leafValues>
            3.1254012137651443e-02 -8.2460296154022217e-01</leafValues></_>
        <_>
          <internalNodes>
            0 -1 196 1.3373369351029396e-02</internalNodes>
          <leafValues>
            -2.8563845902681351e-02 9.4121795892715454e-01</leafValues></_>
        <_>
          <internalNodes>
            0 -1 171 3.7375709507614374e-03</internalNodes>
          <leafValues>
            2.8699861839413643e-02 -8.9113938808441162e-01</leafValues></_>
        <_>
          <internalNodes>
            0 -1 459 -8.0078383907675743e-03</internalNodes>
          <leafValues>
            6.1516845226287842e-01 -3.8735929876565933e-02</leafValues></_>
        <_>
          <internalNodes>
            0 -1 70 2.5096144527196884e-03</internalNodes>
          <leafValues>
            2.6576345786452293e-02 -8.5523331165313721e-01</leafValues></_>
        <_>
          <internalNodes>
            0 -1 61 -4.2695870995521545e-01</internalNodes>
          <leafValues>
            -8.7893205881118774e-01 1.5789389610290527e-02</leafValues></_>
        <_>
          <internalNodes>
            0 -1 101 1.3717025518417358e-01</internalNodes>
          <leafValues>
            1.3225556351244450e-02 -8.5675024986267090e-01</leafValues></_>
        <_>
          <internalNodes>
            0 -1 149 -1.3645226135849953e-02</internalNodes>
          <leafValues>
            5.4134213924407959e-01 -3.4024920314550400e-02</leafValues></_>
        <_>
          <internalNodes>
            0 -1 270 -3.8061486557126045e-03</internalNodes>
          <leafValues>
            -9.1492128372192383e-01 1.8438512459397316e-02</leafValues></_>
        <_>
          <internalNodes>
            0 -1 80 4.4775474816560745e-03</internalNodes>
          <leafValues>
            1.1584077030420303e-02 -8.7637162208557129e-01</leafValues></_>
        <_>
          <internalNodes>
            0 -1 551 -1.5407199971377850e-03</internalNodes>
          <leafValues>
            6.4564716815948486e-01 -2.5677287951111794e-02</leafValues></_>
        <_>
          <internalNodes>
            0 -1 169 -6.0869468143209815e-04</internalNodes>
          <leafValues>
            -7.9475128650665283e-01 1.8979772925376892e-02</leafValues></_>
        <_>
          <internalNodes>
            0 -1 202 -6.4034168608486652e-03</internalNodes>
          <leafValues>
            5.8823573589324951e-01 -2.5437435135245323e-02</leafValues></_>
        <_>
          <internalNodes>
            0 -1 401 1.2785387225449085e-03</internalNodes>
          <leafValues>
            1.4288717880845070e-02 -9.3893003463745117e-01</leafValues></_>
        <_>
          <internalNodes>
            0 -1 398 -1.0104316752403975e-03</internalNodes>
          <leafValues>
            -8.2796692848205566e-01 1.1593889445066452e-02</leafValues></_>
        <_>
          <internalNodes>
            0 -1 428 -1.2474930845201015e-03</internalNodes>
          <leafValues>
            5.9181350469589233e-01 -2.1189184859395027e-02</leafValues></_>
        <_>
          <internalNodes>
            0 -1 582 -4.2464770376682281e-04</internalNodes>
          <leafValues>
            -6.7831170558929443e-01 1.6902225092053413e-02</leafValues></_>
        <_>
          <internalNodes>
            0 -1 525 5.2060792222619057e-04</internalNodes>
          <leafValues>
            -2.0645938813686371e-02 6.0207146406173706e-01</leafValues></_>
        <_>
          <internalNodes>
            0 -1 78 -1.2272568419575691e-03</internalNodes>
          <leafValues>
            -4.6755141019821167e-01 2.6392901316285133e-02</leafValues></_>
        <_>
          <internalNodes>
            0 -1 403 5.6746071204543114e-03</internalNodes>
          <leafValues>
            -1.4941988512873650e-02 6.2358170747756958e-01</leafValues></_>
        <_>
          <internalNodes>
            0 -1 155 1.4320338959805667e-04</internalNodes>
          <leafValues>
            2.0765574648976326e-02 -4.8915866017341614e-01</leafValues></_>
        <_>
          <internalNodes>
            0 -1 393 -1.4096250757575035e-02</internalNodes>
          <leafValues>
            5.6883734464645386e-01 -1.8424183130264282e-02</leafValues></_>
        <_>
          <internalNodes>
            0 -1 515 3.4060599282383919e-03</internalNodes>
          <leafValues>
            8.5907531902194023e-03 -8.7476390600204468e-01</leafValues></_>
        <_>
          <internalNodes>
            0 -1 486 4.4599943794310093e-03</internalNodes>
          <leafValues>
            -9.4845788553357124e-03 7.9513400793075562e-01</leafValues></_>
        <_>
          <internalNodes>
            0 -1 601 -1.3771065277978778e-03</internalNodes>
          <leafValues>
            -9.3200391530990601e-01 9.7639141604304314e-03</leafValues></_>
        <_>
          <internalNodes>
            0 -1 485 4.0080272592604160e-03</internalNodes>
          <leafValues>
            4.7579719685018063e-03 -8.8082206249237061e-01</leafValues></_>
        <_>
          <internalNodes>
            0 -1 112 -5.6177019141614437e-03</internalNodes>
          <leafValues>
            5.7588618993759155e-01 -1.1718693189322948e-02</leafValues></_>
        <_>
          <internalNodes>
            0 -1 288 -3.9586480706930161e-03</internalNodes>
          <leafValues>
            -3.8781777024269104e-01 1.7534786835312843e-02</leafValues></_>
        <_>
          <internalNodes>
            0 -1 544 8.0916506703943014e-04</internalNodes>
          <leafValues>
            -8.9919948950409889e-03 7.2434526681900024e-01</leafValues></_>
        <_>
          <internalNodes>
            0 -1 483 -1.1652254033833742e-03</internalNodes>
          <leafValues>
            -8.2884025573730469e-01 5.4849921725690365e-03</leafValues></_>
        <_>
          <internalNodes>
            0 -1 531 -1.0589413577690721e-03</internalNodes>
          <leafValues>
            5.9235614538192749e-01 -1.0767738334834576e-02</leafValues></_>
        <_>
          <internalNodes>
            0 -1 277 -1.3193963095545769e-02</internalNodes>
          <leafValues>
            -9.6426963806152344e-01 4.4808601960539818e-03</leafValues></_>
        <_>
          <internalNodes>
            0 -1 385 -1.1521747335791588e-02</internalNodes>
          <leafValues>
            -1. 3.3813300542533398e-03</leafValues></_>
        <_>
          <internalNodes>
            0 -1 544 -1.3121196534484625e-03</internalNodes>
          <leafValues>
            7.1105265617370605e-01 -7.3499483987689018e-03</leafValues></_>
        <_>
          <internalNodes>
            0 -1 482 2.1350122988224030e-03</internalNodes>
          <leafValues>
            5.3762383759021759e-03 -8.6131942272186279e-01</leafValues></_>
        <_>
          <internalNodes>
            0 -1 534 -1.2427058815956116e-01</internalNodes>
          <leafValues>
            -9.0200030803680420e-01 4.4537256471812725e-03</leafValues></_>
        <_>
          <internalNodes>
            0 -1 476 1.7352971481159329e-03</internalNodes>
          <leafValues>
            -7.6983356848359108e-03 6.2087762355804443e-01</leafValues></_>
        <_>
          <internalNodes>
            0 -1 206 -6.7820590629708022e-05</internalNodes>
          <leafValues>
            -5.2371746301651001e-01 7.3761898092925549e-03</leafValues></_>
        <_>
          <internalNodes>
            0 -1 262 1.6119481995701790e-02</internalNodes>
          <leafValues>
            -2.9062556568533182e-03 9.1207551956176758e-01</leafValues></_>
        <_>
          <internalNodes>
            0 -1 165 7.2622708976268768e-03</internalNodes>
          <leafValues>
            4.5678550377488136e-03 -9.3426197767257690e-01</leafValues></_>
        <_>
          <internalNodes>
            0 -1 583 -4.3418924324214458e-03</internalNodes>
          <leafValues>
            6.2376761436462402e-01 -6.2476643361151218e-03</leafValues></_>
        <_>
          <internalNodes>
            0 -1 275 -6.1770214233547449e-04</internalNodes>
          <leafValues>
            -5.9260731935501099e-01 4.7159474343061447e-03</leafValues></_>
        <_>
          <internalNodes>
            0 -1 422 -4.5396964997053146e-03</internalNodes>
          <leafValues>
            8.2405179738998413e-01 -3.7342777941375971e-03</leafValues></_>
        <_>
          <internalNodes>
            0 -1 232 -7.1029513492248952e-05</internalNodes>
          <leafValues>
            -7.2392630577087402e-01 4.2147142812609673e-03</leafValues></_>
        <_>
          <internalNodes>
            0 -1 145 -9.0174879878759384e-03</internalNodes>
          <leafValues>
            8.3448690176010132e-01 -1.9676892552524805e-03</leafValues></_>
        <_>
          <internalNodes>
            0 -1 148 -1.6560053918510675e-03</internalNodes>
          <leafValues>
            -5.7073354721069336e-01 3.4682322293519974e-03</leafValues></_>
        <_>
          <internalNodes>
            0 -1 336 7.1724294684827328e-04</internalNodes>
          <leafValues>
            -3.4179545473307371e-03 6.6647398471832275e-01</leafValues></_>
        <_>
          <internalNodes>
            0 -1 339 -2.8449891033233143e-05</internalNodes>
          <leafValues>
            -5.9693354368209839e-01 2.1655873861163855e-03</leafValues></_>
        <_>
          <internalNodes>
            0 -1 164 -8.7015582248568535e-03</internalNodes>
          <leafValues>
            8.6443132162094116e-01 -8.0107228131964803e-04</leafValues></_>
        <_>
          <internalNodes>
            0 -1 160 2.8914427384734154e-03</internalNodes>
          <leafValues>
            2.7729609428206459e-05 -9.1267955303192139e-01</leafValues></_>
        <_>
          <internalNodes>
            0 -1 351 2.0752409473061562e-03</internalNodes>
          <leafValues>
            -2.0716916769742966e-03 7.9944419860839844e-01</leafValues></_>
        <_>
          <internalNodes>
            0 -1 508 -2.9125844594091177e-03</internalNodes>
          <leafValues>
            -8.6054658889770508e-01 1.2174680596217513e-03</leafValues></_>
        <_>
          <internalNodes>
            0 -1 451 -1.9773493986576796e-03</internalNodes>
          <leafValues>
            6.8363314867019653e-01 -1.9140141084790230e-03</leafValues></_>
        <_>
          <internalNodes>
            0 -1 17 -7.1041667833924294e-03</internalNodes>
          <leafValues>
            -7.9562127590179443e-01 2.1131809335201979e-03</leafValues></_></weakClassifiers></_>
    <!-- stage 6 -->
    <_>
      <maxWeakCount>100</maxWeakCount>
      <stageThreshold>-4.5966987609863281e+00</stageThreshold>
      <weakClassifiers>
        <_>
          <internalNodes>
            0 -1 253 -2.5506162643432617e-01</internalNodes>
          <leafValues>
            6.5496182441711426e-01 -9.9737375974655151e-01</leafValues></_>
        <_>
          <internalNodes>
            0 -1 345 -5.4821774363517761e-02</internalNodes>
          <leafValues>
            2.5740322470664978e-01 -9.9453198909759521e-01</leafValues></_>
        <_>
          <internalNodes>
            0 -1 409 -1.9546395633369684e-03</internalNodes>
          <leafValues>
            4.8937013745307922e-01 -9.2001360654830933e-01</leafValues></_>
        <_>
          <internalNodes>
            0 -1 252 -2.3722724989056587e-02</internalNodes>
          <leafValues>
            2.6372510194778442e-01 -9.3240034580230713e-01</leafValues></_>
        <_>
          <internalNodes>
            0 -1 236 5.8362772688269615e-04</internalNodes>
          <leafValues>
            -5.0479221343994141e-01 7.1859496831893921e-01</leafValues></_>
        <_>
          <internalNodes>
            0 -1 431 6.4225180540233850e-04</internalNodes>
          <leafValues>
            -2.7766326069831848e-01 6.0123616456985474e-01</leafValues></_>
        <_>
          <internalNodes>
            0 -1 532 -1.3293684460222721e-02</internalNodes>
          <leafValues>
            8.2575559616088867e-01 -1.1880593746900558e-01</leafValues></_>
        <_>
          <internalNodes>
            0 -1 229 2.3386715911328793e-03</internalNodes>
          <leafValues>
            1.4104126393795013e-01 -8.1126248836517334e-01</leafValues></_>
        <_>
          <internalNodes>
            0 -1 326 -1.3099857605993748e-02</internalNodes>
          <leafValues>
            7.1280711889266968e-01 -1.5513581037521362e-01</leafValues></_>
        <_>
          <internalNodes>
            0 -1 509 -1.2853296473622322e-02</internalNodes>
          <leafValues>
            -7.7666842937469482e-01 1.2987443804740906e-01</leafValues></_>
        <_>
          <internalNodes>
            0 -1 255 -3.8508076220750809e-02</internalNodes>
          <leafValues>
            5.4225790500640869e-01 -1.5504071116447449e-01</leafValues></_>
        <_>
          <internalNodes>
            0 -1 170 1.2950261589139700e-03</internalNodes>
          <leafValues>
            9.8241582512855530e-02 -9.1099369525909424e-01</leafValues></_>
        <_>
          <internalNodes>
            0 -1 147 -2.1956493146717548e-03</internalNodes>
          <leafValues>
            7.7887612581253052e-01 -9.9703073501586914e-02</leafValues></_>
        <_>
          <internalNodes>
            0 -1 491 -1.8334042280912399e-02</internalNodes>
          <leafValues>
            -3.9328432083129883e-01 2.1514959633350372e-01</leafValues></_>
        <_>
          <internalNodes>
            0 -1 559 1.1745074763894081e-02</internalNodes>
          <leafValues>
            -9.7877644002437592e-02 8.6040824651718140e-01</leafValues></_>
        <_>
          <internalNodes>
            0 -1 402 5.8346483856439590e-03</internalNodes>
          <leafValues>
            7.2724632918834686e-02 -9.5843476057052612e-01</leafValues></_>
        <_>
          <internalNodes>
            0 -1 364 1.6026308294385672e-03</internalNodes>
          <leafValues>
            -9.6678383648395538e-02 6.1645829677581787e-01</leafValues></_>
        <_>
          <internalNodes>
            0 -1 14 -1.3406781945377588e-03</internalNodes>
          <leafValues>
            -9.7419071197509766e-01 5.8499332517385483e-02</leafValues></_>
        <_>
          <internalNodes>
            0 -1 593 6.0081658884882927e-03</internalNodes>
          <leafValues>
            2.8322422876954079e-02 -8.9629739522933960e-01</leafValues></_>
        <_>
          <internalNodes>
            0 -1 324 3.3618337474763393e-03</internalNodes>
          <leafValues>
            -7.1701899170875549e-02 7.1287721395492554e-01</leafValues></_>
        <_>
          <internalNodes>
            0 -1 456 1.1155096814036369e-02</internalNodes>
          <leafValues>
            5.8969557285308838e-02 -7.9881429672241211e-01</leafValues></_>
        <_>
          <internalNodes>
            0 -1 90 6.7669306881725788e-03</internalNodes>
          <leafValues>
            -5.9260413050651550e-02 7.0510721206665039e-01</leafValues></_>
        <_>
          <internalNodes>
            0 -1 94 4.3996870517730713e-03</internalNodes>
          <leafValues>
            6.5492756664752960e-02 -6.8482357263565063e-01</leafValues></_>
        <_>
          <internalNodes>
            0 -1 441 -4.0055890567600727e-03</internalNodes>
          <leafValues>
            6.8802505731582642e-01 -5.1993455737829208e-02</leafValues></_>
        <_>
          <internalNodes>
            0 -1 284 2.1975904703140259e-02</internalNodes>
          <leafValues>
            4.8309117555618286e-02 -7.2045862674713135e-01</leafValues></_>
        <_>
          <internalNodes>
            0 -1 31 -4.3592378497123718e-03</internalNodes>
          <leafValues>
            -9.9601978063583374e-01 1.9303968176245689e-02</leafValues></_>
        <_>
          <internalNodes>
            0 -1 470 -1.4513982459902763e-03</internalNodes>
          <leafValues>
            7.1365892887115479e-01 -4.7602914273738861e-02</leafValues></_>
        <_>
          <internalNodes>
            0 -1 381 9.0207258472219110e-04</internalNodes>
          <leafValues>
            3.4558396786451340e-02 -8.4055161476135254e-01</leafValues></_>
        <_>
          <internalNodes>
            0 -1 344 6.9445176050066948e-03</internalNodes>
          <leafValues>
            -3.1816463917493820e-02 9.5167410373687744e-01</leafValues></_>
        <_>
          <internalNodes>
            0 -1 11 2.7489785104990005e-02</internalNodes>
          <leafValues>
            4.4905405491590500e-02 -5.8870422840118408e-01</leafValues></_>
        <_>
          <internalNodes>
            0 -1 181 -9.6432175487279892e-03</internalNodes>
          <leafValues>
            8.6539602279663086e-01 -3.4358888864517212e-02</leafValues></_>
        <_>
          <internalNodes>
            0 -1 89 5.3168032318353653e-03</internalNodes>
          <leafValues>
            2.6627799496054649e-02 -8.7836784124374390e-01</leafValues></_>
        <_>
          <internalNodes>
            0 -1 238 -3.7927515804767609e-03</internalNodes>
          <leafValues>
            6.2272161245346069e-01 -3.1688202172517776e-02</leafValues></_>
        <_>
          <internalNodes>
            0 -1 240 -5.1304530352354050e-03</internalNodes>
          <leafValues>
            -5.9213501214981079e-01 3.5594299435615540e-02</leafValues></_>
        <_>
          <internalNodes>
            0 -1 271 -2.6084645651280880e-03</internalNodes>
          <leafValues>
            7.4590623378753662e-01 -2.3043984547257423e-02</leafValues></_>
        <_>
          <internalNodes>
            0 -1 230 4.2705272790044546e-04</internalNodes>
          <leafValues>
            2.0881038159132004e-02 -7.9113900661468506e-01</leafValues></_>
        <_>
          <internalNodes>
            0 -1 49 -9.3896463513374329e-03</internalNodes>
          <leafValues>
            8.5128289461135864e-01 -1.9005943089723587e-02</leafValues></_>
        <_>
          <internalNodes>
            0 -1 87 1.1836033314466476e-02</internalNodes>
          <leafValues>
            1.8510621041059494e-02 -8.0775707960128784e-01</leafValues></_>
        <_>
          <internalNodes>
            0 -1 307 -9.3704136088490486e-03</internalNodes>
          <leafValues>
            6.8831336498260498e-01 -2.0379949361085892e-02</leafValues></_>
        <_>
          <internalNodes>
            0 -1 561 -7.9535301774740219e-03</internalNodes>
          <leafValues>
            -8.4086960554122925e-01 1.7007213085889816e-02</leafValues></_>
        <_>
          <internalNodes>
            0 -1 41 -3.9913468062877655e-03</internalNodes>
          <leafValues>
            -9.0056514739990234e-01 7.7763753943145275e-03</leafValues></_>
        <_>
          <internalNodes>
            0 -1 440 -3.9326585829257965e-03</internalNodes>
          <leafValues>
            6.2534177303314209e-01 -1.8271405249834061e-02</leafValues></_>
        <_>
          <internalNodes>
            0 -1 15 -2.8927953098900616e-04</internalNodes>
          <leafValues>
            -6.1572003364562988e-01 1.7014566808938980e-02</leafValues></_>
        <_>
          <internalNodes>
            0 -1 569 9.9012404680252075e-03</internalNodes>
          <leafValues>
            -1.2136199511587620e-02 8.4043598175048828e-01</leafValues></_>
        <_>
          <internalNodes>
            0 -1 522 8.7494105100631714e-03</internalNodes>
          <leafValues>
            1.1311315000057220e-02 -8.3808696269989014e-01</leafValues></_>
        <_>
          <internalNodes>
            0 -1 516 4.8154965043067932e-04</internalNodes>
          <leafValues>
            -1.3421067968010902e-02 6.2945377826690674e-01</leafValues></_>
        <_>
          <internalNodes>
            0 -1 501 -9.2082228511571884e-03</internalNodes>
          <leafValues>
            -4.1965425014495850e-01 2.1478986367583275e-02</leafValues></_>
        <_>
          <internalNodes>
            0 -1 495 -1.2616289313882589e-03</internalNodes>
          <leafValues>
            6.6374635696411133e-01 -1.4379667118191719e-02</leafValues></_>
        <_>
          <internalNodes>
            0 -1 435 -1.8312842585146427e-03</internalNodes>
          <leafValues>
            -9.5446324348449707e-01 7.7176000922918320e-03</leafValues></_>
        <_>
          <internalNodes>
            0 -1 426 9.4795227050781250e-03</internalNodes>
          <leafValues>
            -9.7977761179208755e-03 7.1553629636764526e-01</leafValues></_>
        <_>
          <internalNodes>
            0 -1 295 2.9622518923133612e-04</internalNodes>
          <leafValues>
            1.2579863891005516e-02 -5.2104204893112183e-01</leafValues></_>
        <_>
          <internalNodes>
            0 -1 142 -2.5557805784046650e-03</internalNodes>
          <leafValues>
            6.6655820608139038e-01 -8.5395518690347672e-03</leafValues></_>
        <_>
          <internalNodes>
            0 -1 599 -2.3970204347278923e-04</internalNodes>
          <leafValues>
            -6.5782010555267334e-01 7.8972084447741508e-03</leafValues></_>
        <_>
          <internalNodes>
            0 -1 566 -2.2972086444497108e-03</internalNodes>
          <leafValues>
            7.1995645761489868e-01 -6.4586349762976170e-03</leafValues></_>
        <_>
          <internalNodes>
            0 -1 581 1.1463006958365440e-03</internalNodes>
          <leafValues>
            4.7587160952389240e-03 -9.0181005001068115e-01</leafValues></_>
        <_>
          <internalNodes>
            0 -1 303 -1.6303972806781530e-03</internalNodes>
          <leafValues>
            6.8195921182632446e-01 -6.7052165977656841e-03</leafValues></_>
        <_>
          <internalNodes>
            0 -1 212 1.5195731975836679e-05</internalNodes>
          <leafValues>
            8.7518552318215370e-03 -5.5240631103515625e-01</leafValues></_>
        <_>
          <internalNodes>
            0 -1 472 5.8910134248435497e-04</internalNodes>
          <leafValues>
            -4.0142443031072617e-03 7.3117935657501221e-01</leafValues></_>
        <_>
          <internalNodes>
            0 -1 322 -4.8506304621696472e-02</internalNodes>
          <leafValues>
            -6.0652500391006470e-01 5.9174546040594578e-03</leafValues></_>
        <_>
          <internalNodes>
            0 -1 103 -9.5810005441308022e-03</internalNodes>
          <leafValues>
            7.3009788990020752e-01 -4.6488475054502487e-03</leafValues></_>
        <_>
          <internalNodes>
            0 -1 423 -6.3814404711592942e-05</internalNodes>
          <leafValues>
            -5.4097247123718262e-01 4.4291284866631031e-03</leafValues></_>
        <_>
          <internalNodes>
            0 -1 198 -4.5915897935628891e-03</internalNodes>
          <leafValues>
            7.2929096221923828e-01 -3.8777764420956373e-03</leafValues></_>
        <_>
          <internalNodes>
            0 -1 436 -2.6859315112233162e-03</internalNodes>
          <leafValues>
            -9.2154872417449951e-01 2.1881328430026770e-03</leafValues></_>
        <_>
          <internalNodes>
            0 -1 376 -9.3287945492193103e-04</internalNodes>
          <leafValues>
            7.5371271371841431e-01 -3.0656419694423676e-03</leafValues></_>
        <_>
          <internalNodes>
            0 -1 557 -4.1427761316299438e-03</internalNodes>
          <leafValues>
            -9.5812910795211792e-01 2.3510176688432693e-03</leafValues></_>
        <_>
          <internalNodes>
            0 -1 63 3.3652815036475658e-03</internalNodes>
          <leafValues>
            2.4849621113389730e-03 -7.6970332860946655e-01</leafValues></_>
        <_>
          <internalNodes>
            0 -1 510 -1.2594080180861056e-04</internalNodes>
          <leafValues>
            8.1611055135726929e-01 -2.3993446957319975e-03</leafValues></_>
        <_>
          <internalNodes>
            0 -1 111 -7.0915455580689013e-05</internalNodes>
          <leafValues>
            -6.8282210826873779e-01 1.2848924379795790e-03</leafValues></_>
        <_>
          <internalNodes>
            0 -1 320 -1.1816779151558876e-02</internalNodes>
          <leafValues>
            9.3581044673919678e-01 -1.4322987990453839e-03</leafValues></_>
        <_>
          <internalNodes>
            0 -1 173 -4.2202137410640717e-03</internalNodes>
          <leafValues>
            -6.4289969205856323e-01 2.1659804042428732e-03</leafValues></_>
        <_>
          <internalNodes>
            0 -1 574 -1.0522926459088922e-04</internalNodes>
          <leafValues>
            8.4095388650894165e-01 -1.8477672711014748e-03</leafValues></_>
        <_>
          <internalNodes>
            0 -1 597 -1.7849481082521379e-04</internalNodes>
          <leafValues>
            -8.2697337865829468e-01 9.8797830287367105e-04</leafValues></_>
        <_>
          <internalNodes>
            0 -1 595 -1.9383631297387183e-05</internalNodes>
          <leafValues>
            8.3715188503265381e-01 -3.3864701981656253e-04</leafValues></_>
        <_>
          <internalNodes>
            0 -1 596 -5.0720607396215200e-04</internalNodes>
          <leafValues>
            -8.7355750799179077e-01 1.4771401765756309e-04</leafValues></_>
        <_>
          <internalNodes>
            0 -1 528 -1.4435076154768467e-03</internalNodes>
          <leafValues>
            9.4109183549880981e-01 -3.7694760976592079e-05</leafValues></_>
        <_>
          <internalNodes>
            0 -1 549 -2.3922619584482163e-04</internalNodes>
          <leafValues>
            -8.4346038103103638e-01 4.4664338929578662e-04</leafValues></_>
        <_>
          <internalNodes>
            0 -1 549 -1.1164834722876549e-03</internalNodes>
          <leafValues>
            9.1988438367843628e-01 -8.8849374151322991e-05</leafValues></_>
        <_>
          <internalNodes>
            0 -1 549 -2.4294893955811858e-04</internalNodes>
          <leafValues>
            -8.8456416130065918e-01 8.8849403255153447e-05</leafValues></_>
        <_>
          <internalNodes>
            0 -1 332 -1.6591757230344228e-05</internalNodes>
          <leafValues>
            9.1068559885025024e-01 -2.8093141736462712e-04</leafValues></_>
        <_>
          <internalNodes>
            0 -1 146 -1.9961383193731308e-02</internalNodes>
          <leafValues>
            -7.8610360622406006e-01 6.2918913317844272e-04</leafValues></_>
        <_>
          <internalNodes>
            0 -1 499 -8.3391793072223663e-02</internalNodes>
          <leafValues>
            8.6102914810180664e-01 -1.2759367236867547e-03</leafValues></_>
        <_>
          <internalNodes>
            0 -1 59 -1.9059928134083748e-02</internalNodes>
          <leafValues>
            -8.7512743473052979e-01 1.1388900456950068e-03</leafValues></_>
        <_>
          <internalNodes>
            0 -1 167 -1.9384661689400673e-02</internalNodes>
          <leafValues>
            9.1905438899993896e-01 -5.6645029690116644e-04</leafValues></_>
        <_>
          <internalNodes>
            0 -1 29 -5.0389124080538750e-03</internalNodes>
          <leafValues>
            -9.1696858406066895e-01 2.4766873684711754e-04</leafValues></_>
        <_>
          <internalNodes>
            0 -1 543 -6.5923528745770454e-04</internalNodes>
          <leafValues>
            9.5650696754455566e-01 -1.6184811829589307e-04</leafValues></_>
        <_>
          <internalNodes>
            0 -1 4 -4.2136696720262989e-05</internalNodes>
          <leafValues>
            -9.7196328639984131e-01 1.0739277058746666e-04</leafValues></_>
        <_>
          <internalNodes>
            0 -1 225 -1.3635886134579778e-03</internalNodes>
          <leafValues>
            9.8224854469299316e-01 -7.1261354605667293e-05</leafValues></_>
        <_>
          <internalNodes>
            0 -1 4 -4.2136696720262989e-05</internalNodes>
          <leafValues>
            -9.6994650363922119e-01 7.1261354605667293e-05</leafValues></_>
        <_>
          <internalNodes>
            0 -1 2 -3.8303859764710069e-04</internalNodes>
          <leafValues>
            9.8173236846923828e-01 -3.9832266445719716e-14</leafValues></_>
        <_>
          <internalNodes>
            0 -1 2 -3.2314143027178943e-04</internalNodes>
          <leafValues>
            -9.6944820880889893e-01 1.5616972775731042e-13</leafValues></_>
        <_>
          <internalNodes>
            0 -1 2 -1.8303310207556933e-04</internalNodes>
          <leafValues>
            9.8160392045974731e-01 -1.0702579095319895e-13</leafValues></_>
        <_>
          <internalNodes>
            0 -1 2 -3.2314143027178943e-04</internalNodes>
          <leafValues>
            -9.7017109394073486e-01 5.4468724723730905e-14</leafValues></_>
        <_>
          <internalNodes>
            0 -1 2 -1.8303310207556933e-04</internalNodes>
          <leafValues>
            9.8101842403411865e-01 4.3169938788003084e-14</leafValues></_>
        <_>
          <internalNodes>
            0 -1 2 -3.2314143027178943e-04</internalNodes>
          <leafValues>
            -9.7118592262268066e-01 -1.5093698860213500e-13</leafValues></_>
        <_>
          <internalNodes>
            0 -1 242 -1.8646857934072614e-03</internalNodes>
          <leafValues>
            9.8064506053924561e-01 -1.0223453136859462e-04</leafValues></_>
        <_>
          <internalNodes>
            0 -1 4 -4.2136696720262989e-05</internalNodes>
          <leafValues>
            -9.7090655565261841e-01 1.0223453136859462e-04</leafValues></_>
        <_>
          <internalNodes>
            0 -1 2 -1.8303310207556933e-04</internalNodes>
          <leafValues>
            9.8040717840194702e-01 3.5495578373269387e-13</leafValues></_>
        <_>
          <internalNodes>
            0 -1 2 -1.4501347322948277e-04</internalNodes>
          <leafValues>
            -9.7066605091094971e-01 1.4450055464253903e-13</leafValues></_>
        <_>
          <internalNodes>
            0 -1 2 -1.8303310207556933e-04</internalNodes>
          <leafValues>
            9.7984611988067627e-01 8.0748540246347068e-15</leafValues></_>
        <_>
          <internalNodes>
            0 -1 2 -1.4501347322948277e-04</internalNodes>
          <leafValues>
            -9.7119200229644775e-01 -2.7261304785851717e-14</leafValues></_></weakClassifiers></_>
    <!-- stage 7 -->
    <_>
      <maxWeakCount>100</maxWeakCount>
      <stageThreshold>-4.5956287384033203e+00</stageThreshold>
      <weakClassifiers>
        <_>
          <internalNodes>
            0 -1 560 -5.5530481040477753e-03</internalNodes>
          <leafValues>
            5.4621851444244385e-01 -9.9939030408859253e-01</leafValues></_>
        <_>
          <internalNodes>
            0 -1 256 -3.3664822578430176e-02</internalNodes>
          <leafValues>
            4.5993506908416748e-01 -9.6714365482330322e-01</leafValues></_>
        <_>
          <internalNodes>
            0 -1 384 -1.0162684135138988e-02</internalNodes>
          <leafValues>
            2.5303035974502563e-01 -9.8621857166290283e-01</leafValues></_>
        <_>
          <internalNodes>
            0 -1 563 -3.0091456137597561e-03</internalNodes>
          <leafValues>
            4.5410650968551636e-01 -7.4083721637725830e-01</leafValues></_>
        <_>
          <internalNodes>
            0 -1 382 -9.0451659634709358e-03</internalNodes>
          <leafValues>
            2.7932152152061462e-01 -7.1450352668762207e-01</leafValues></_>
        <_>
          <internalNodes>
            0 -1 56 -2.4596445262432098e-02</internalNodes>
          <leafValues>
            7.6033878326416016e-01 -2.2042283415794373e-01</leafValues></_>
        <_>
          <internalNodes>
            0 -1 503 2.1266777184791863e-04</internalNodes>
          <leafValues>
            -1.2174805998802185e-01 8.3893895149230957e-01</leafValues></_>
        <_>
          <internalNodes>
            0 -1 32 4.9605313688516617e-04</internalNodes>
          <leafValues>
            1.4273819327354431e-01 -7.8742444515228271e-01</leafValues></_>
        <_>
          <internalNodes>
            0 -1 579 -2.2763665765523911e-03</internalNodes>
          <leafValues>
            7.1915239095687866e-01 -1.5235091745853424e-01</leafValues></_>
        <_>
          <internalNodes>
            0 -1 247 -3.4491855651140213e-02</internalNodes>
          <leafValues>
            -3.5990163683891296e-01 2.7539256215095520e-01</leafValues></_>
        <_>
          <internalNodes>
            0 -1 106 -2.3122478742152452e-03</internalNodes>
          <leafValues>
            6.5324145555496216e-01 -1.5767161548137665e-01</leafValues></_>
        <_>
          <internalNodes>
            0 -1 562 -1.5813086181879044e-02</internalNodes>
          <leafValues>
            7.0920366048812866e-01 -9.2816516757011414e-02</leafValues></_>
        <_>
          <internalNodes>
            0 -1 296 -6.4858105033636093e-03</internalNodes>
          <leafValues>
            -6.9960618019104004e-01 1.2683735787868500e-01</leafValues></_>
        <_>
          <internalNodes>
            0 -1 586 -8.5315294563770294e-03</internalNodes>
          <leafValues>
            8.3089053630828857e-01 -9.7919702529907227e-02</leafValues></_>
        <_>
          <internalNodes>
            0 -1 584 -2.8423843905329704e-03</internalNodes>
          <leafValues>
            -8.7021154165267944e-01 9.2154815793037415e-02</leafValues></_>
        <_>
          <internalNodes>
            0 -1 588 -9.6372608095407486e-03</internalNodes>
          <leafValues>
            8.6925178766250610e-01 -9.6124403178691864e-02</leafValues></_>
        <_>
          <internalNodes>
            0 -1 156 3.7816651456523687e-05</internalNodes>
          <leafValues>
            1.4111645519733429e-01 -4.7835841774940491e-01</leafValues></_>
        <_>
          <internalNodes>
            0 -1 363 -3.5023950040340424e-03</internalNodes>
          <leafValues>
            6.4519137144088745e-01 -9.9433951079845428e-02</leafValues></_>
        <_>
          <internalNodes>
            0 -1 444 7.1311690844595432e-03</internalNodes>
          <leafValues>
            6.6286623477935791e-02 -9.0950089693069458e-01</leafValues></_>
        <_>
          <internalNodes>
            0 -1 406 -4.9168886616826057e-03</internalNodes>
          <leafValues>
            8.2904630899429321e-01 -7.9531677067279816e-02</leafValues></_>
        <_>
          <internalNodes>
            0 -1 80 -3.7989679258316755e-03</internalNodes>
          <leafValues>
            -7.9412996768951416e-01 6.9229617714881897e-02</leafValues></_>
        <_>
          <internalNodes>
            0 -1 122 1.8486038316041231e-03</internalNodes>
          <leafValues>
            -7.0991307497024536e-02 6.7321223020553589e-01</leafValues></_>
        <_>
          <internalNodes>
            0 -1 185 -1.9533166289329529e-01</internalNodes>
          <leafValues>
