<?xml version="1.0"?>
<opencv_storage>
<cascade>
  <stageType>BOOST</stageType>
  <featureType>HAAR</featureType>
  <height>24</height>
  <width>45</width>
  <stageParams>
    <boostType>GAB</boostType>
    <minHitRate>9.9900001287460327e-01</minHitRate>
    <maxFalseAlarm>2.5000000000000000e-01</maxFalseAlarm>
    <weightTrimRate>9.4999999999999996e-01</weightTrimRate>
    <maxDepth>1</maxDepth>
    <maxWeakCount>100</maxWeakCount></stageParams>
  <featureParams>
    <maxCatCount>0</maxCatCount>
    <featSize>1</featSize>
    <mode>BASIC</mode></featureParams>
  <stageNum>10</stageNum>
  <stages>
    <!-- stage 0 -->
    <_>
      <maxWeakCount>10</maxWeakCount>
      <stageThreshold>-1.5608654022216797e+00</stageThreshold>
      <weakClassifiers>
        <_>
          <internalNodes>
            0 -1 0 -2.2920230031013489e-01</internalNodes>
          <leafValues>
            -8.7448841333389282e-01 4.4158878922462463e-01</leafValues></_>
        <_>
          <internalNodes>
            0 -1 5 3.0484259128570557e-02</internalNodes>
          <leafValues>
            -8.0067008733749390e-01 5.0793409347534180e-01</leafValues></_>
        <_>
          <internalNodes>
            0 -1 232 -3.6786000709980726e-03</internalNodes>
          <leafValues>
            7.2540992498397827e-01 -5.0801527500152588e-01</leafValues></_>
        <_>
          <internalNodes>
            0 -1 15 5.7005207054316998e-03</internalNodes>
          <leafValues>
            -8.1163042783737183e-01 3.2575958967208862e-01</leafValues></_>
        <_>
          <internalNodes>
            0 -1 57 7.0126280188560486e-02</internalNodes>
          <leafValues>
            -3.8360443711280823e-01 7.1458160877227783e-01</leafValues></_>
        <_>
          <internalNodes>
            0 -1 130 -4.1877120733261108e-01</internalNodes>
          <leafValues>
            -5.5733829736709595e-01 4.6647563576698303e-01</leafValues></_>
        <_>
          <internalNodes>
            0 -1 110 2.3426434025168419e-02</internalNodes>
          <leafValues>
            1.9236074388027191e-01 -8.7501889467239380e-01</leafValues></_>
        <_>
          <internalNodes>
            0 -1 21 -8.4228292107582092e-03</internalNodes>
          <leafValues>
            5.8629870414733887e-01 -3.3028724789619446e-01</leafValues></_>
        <_>
          <internalNodes>
            0 -1 171 -1.8808022141456604e-03</internalNodes>
          <leafValues>
            7.2373318672180176e-01 -2.1730136871337891e-01</leafValues></_>
        <_>
          <internalNodes>
            0 -1 76 -1.0698756203055382e-02</internalNodes>
          <leafValues>
            6.0810935497283936e-01 -2.7129101753234863e-01</leafValues></_></weakClassifiers></_>
    <!-- stage 1 -->
    <_>
      <maxWeakCount>13</maxWeakCount>
      <stageThreshold>-1.9056590795516968e+00</stageThreshold>
      <weakClassifiers>
        <_>
          <internalNodes>
            0 -1 228 -9.5823314040899277e-03</internalNodes>
          <leafValues>
            7.5406873226165771e-01 -7.8417265415191650e-01</leafValues></_>
        <_>
          <internalNodes>
            0 -1 49 -4.3384712189435959e-02</internalNodes>
          <leafValues>
            5.1542705297470093e-01 -5.8748781681060791e-01</leafValues></_>
        <_>
          <internalNodes>
            0 -1 47 6.5101697109639645e-03</internalNodes>
          <leafValues>
            -7.0748573541641235e-01 3.2241508364677429e-01</leafValues></_>
        <_>
          <internalNodes>
            0 -1 129 6.1483565717935562e-02</internalNodes>
          <leafValues>
            -5.0723904371261597e-01 4.6263465285301208e-01</leafValues></_>
        <_>
          <internalNodes>
            0 -1 31 -1.8492667376995087e-01</internalNodes>
          <leafValues>
            -6.4659935235977173e-01 3.2635837793350220e-01</leafValues></_>
        <_>
          <internalNodes>
            0 -1 220 -7.3225065134465694e-03</internalNodes>
          <leafValues>
            7.3960691690444946e-01 -3.3774545788764954e-01</leafValues></_>
        <_>
          <internalNodes>
            0 -1 109 -1.0330688208341599e-01</internalNodes>
          <leafValues>
            -9.1009742021560669e-01 2.3548360168933868e-01</leafValues></_>
        <_>
          <internalNodes>
            0 -1 61 3.8748115301132202e-02</internalNodes>
          <leafValues>
            2.4898515641689301e-01 -8.1303071975708008e-01</leafValues></_>
        <_>
          <internalNodes>
            0 -1 16 1.4360155910253525e-04</internalNodes>
          <leafValues>
            -7.8644865751266479e-01 1.5853059291839600e-01</leafValues></_>
        <_>
          <internalNodes>
            0 -1 6 -5.0889272242784500e-03</internalNodes>
          <leafValues>
            7.7071934938430786e-01 -2.1700052917003632e-01</leafValues></_>
        <_>
          <internalNodes>
            0 -1 168 4.3575592339038849e-02</internalNodes>
          <leafValues>
            -1.9426605105400085e-01 7.0789229869842529e-01</leafValues></_>
        <_>
          <internalNodes>
            0 -1 108 -1.6274929046630859e-02</internalNodes>
          <leafValues>
            6.7990726232528687e-01 -1.9497367739677429e-01</leafValues></_>
        <_>
          <internalNodes>
            0 -1 69 2.0311802625656128e-02</internalNodes>
          <leafValues>
            -2.1952675282955170e-01 7.2401869297027588e-01</leafValues></_></weakClassifiers></_>
    <!-- stage 2 -->
    <_>
      <maxWeakCount>16</maxWeakCount>
      <stageThreshold>-1.7227662801742554e+00</stageThreshold>
      <weakClassifiers>
        <_>
          <internalNodes>
            0 -1 230 -1.4961665496230125e-02</internalNodes>
          <leafValues>
            5.2325582504272461e-01 -7.1484833955764771e-01</leafValues></_>
        <_>
          <internalNodes>
            0 -1 36 -4.1679561138153076e-02</internalNodes>
          <leafValues>
            3.3063933253288269e-01 -6.5525978803634644e-01</leafValues></_>
        <_>
          <internalNodes>
            0 -1 44 2.3554850369691849e-02</internalNodes>
          <leafValues>
            -5.2784562110900879e-01 3.4895026683807373e-01</leafValues></_>
        <_>
          <internalNodes>
            0 -1 113 3.6398284137248993e-02</internalNodes>
          <leafValues>
            -3.6043709516525269e-01 5.3032684326171875e-01</leafValues></_>
        <_>
          <internalNodes>
            0 -1 152 -1.9759710878133774e-02</internalNodes>
          <leafValues>
            -6.4220994710922241e-01 3.2967114448547363e-01</leafValues></_>
        <_>
          <internalNodes>
            0 -1 200 7.3894541710615158e-03</internalNodes>
          <leafValues>
            -3.1471478939056396e-01 5.4299640655517578e-01</leafValues></_>
        <_>
          <internalNodes>
            0 -1 72 -1.5775810461491346e-03</internalNodes>
          <leafValues>
            6.9650602340698242e-01 -1.9500747323036194e-01</leafValues></_>
        <_>
          <internalNodes>
            0 -1 88 -1.3913726434111595e-02</internalNodes>
          <leafValues>
            4.9414908885955811e-01 -2.7318975329399109e-01</leafValues></_>
        <_>
          <internalNodes>
            0 -1 123 3.7779308855533600e-02</internalNodes>
          <leafValues>
            1.6758731007575989e-01 -9.3885570764541626e-01</leafValues></_>
        <_>
          <internalNodes>
            0 -1 213 -1.7784209921956062e-03</internalNodes>
          <leafValues>
            4.1532373428344727e-01 -3.3821168541908264e-01</leafValues></_>
        <_>
          <internalNodes>
            0 -1 196 -1.0855427244678140e-03</internalNodes>
          <leafValues>
            -8.9779096841812134e-01 1.4675264060497284e-01</leafValues></_>
        <_>
          <internalNodes>
            0 -1 153 9.9616381339728832e-04</internalNodes>
          <leafValues>
            -1.9586680829524994e-01 7.9138547182083130e-01</leafValues></_>
        <_>
          <internalNodes>
            0 -1 51 -2.7563273906707764e-02</internalNodes>
          <leafValues>
            -6.6823357343673706e-01 2.2228938341140747e-01</leafValues></_>
        <_>
          <internalNodes>
            0 -1 150 -1.3978956267237663e-03</internalNodes>
          <leafValues>
            6.0411518812179565e-01 -2.4317681789398193e-01</leafValues></_>
        <_>
          <internalNodes>
            0 -1 79 -4.4268867932260036e-03</internalNodes>
          <leafValues>
            6.0521495342254639e-01 -2.0895661413669586e-01</leafValues></_>
        <_>
          <internalNodes>
            0 -1 89 1.9534090533852577e-02</internalNodes>
          <leafValues>
            -2.0527224242687225e-01 7.1435028314590454e-01</leafValues></_></weakClassifiers></_>
    <!-- stage 3 -->
    <_>
      <maxWeakCount>18</maxWeakCount>
      <stageThreshold>-1.7776494026184082e+00</stageThreshold>
      <weakClassifiers>
        <_>
          <internalNodes>
            0 -1 231 -5.5439374409615993e-03</internalNodes>
          <leafValues>
            9.9391482770442963e-02 -7.9410344362258911e-01</leafValues></_>
        <_>
          <internalNodes>
            0 -1 159 4.5858208090066910e-02</internalNodes>
          <leafValues>
            -4.2920237779617310e-01 5.0543129444122314e-01</leafValues></_>
        <_>
          <internalNodes>
            0 -1 43 8.7391249835491180e-03</internalNodes>
          <leafValues>
            -7.4439358711242676e-01 2.4079495668411255e-01</leafValues></_>
        <_>
          <internalNodes>
            0 -1 166 -3.3334501087665558e-02</internalNodes>
          <leafValues>
            5.8947646617889404e-01 -3.0364739894866943e-01</leafValues></_>
        <_>
          <internalNodes>
            0 -1 28 1.6131806187331676e-03</internalNodes>
          <leafValues>
            -3.3258429169654846e-01 4.3684953451156616e-01</leafValues></_>
        <_>
          <internalNodes>
            0 -1 132 -1.3521466404199600e-02</internalNodes>
          <leafValues>
            5.5096209049224854e-01 -2.3612938821315765e-01</leafValues></_>
        <_>
          <internalNodes>
            0 -1 99 -2.9685068875551224e-02</internalNodes>
          <leafValues>
            -9.2782449722290039e-01 1.7260627448558807e-01</leafValues></_>
        <_>
          <internalNodes>
            0 -1 68 1.3235598802566528e-02</internalNodes>
          <leafValues>
            -2.4186939001083374e-01 5.8094555139541626e-01</leafValues></_>
        <_>
          <internalNodes>
            0 -1 164 -2.1252057049423456e-03</internalNodes>
          <leafValues>
            6.2876147031784058e-01 -2.0071034133434296e-01</leafValues></_>
        <_>
          <internalNodes>
            0 -1 165 1.1427674908190966e-03</internalNodes>
          <leafValues>
            -1.8238800764083862e-01 7.0981162786483765e-01</leafValues></_>
        <_>
          <internalNodes>
            0 -1 174 -3.9140456356108189e-03</internalNodes>
          <leafValues>
            -8.3081638813018799e-01 1.6733644902706146e-01</leafValues></_>
        <_>
          <internalNodes>
            0 -1 209 4.2759655043482780e-03</internalNodes>
          <leafValues>
            -2.3648992180824280e-01 6.1408662796020508e-01</leafValues></_>
        <_>
          <internalNodes>
            0 -1 179 5.4518975317478180e-02</internalNodes>
          <leafValues>
            1.3841339945793152e-01 -9.7996354103088379e-01</leafValues></_>
        <_>
          <internalNodes>
            0 -1 137 -1.1298866569995880e-01</internalNodes>
          <leafValues>
            -8.6954927444458008e-01 1.1201526224613190e-01</leafValues></_>
        <_>
          <internalNodes>
            0 -1 215 -4.0157334879040718e-03</internalNodes>
          <leafValues>
            2.6162746548652649e-01 -4.5135873556137085e-01</leafValues></_>
        <_>
          <internalNodes>
            0 -1 138 2.0781483501195908e-02</internalNodes>
          <leafValues>
            -1.7511825263500214e-01 6.5143036842346191e-01</leafValues></_>
        <_>
          <internalNodes>
            0 -1 81 7.5772590935230255e-03</internalNodes>
          <leafValues>
            1.4930874109268188e-01 -8.1466233730316162e-01</leafValues></_>
        <_>
          <internalNodes>
            0 -1 50 -9.8157748579978943e-03</internalNodes>
          <leafValues>
            -7.7189522981643677e-01 1.3354039192199707e-01</leafValues></_></weakClassifiers></_>
    <!-- stage 4 -->
    <_>
      <maxWeakCount>19</maxWeakCount>
      <stageThreshold>-1.4464613199234009e+00</stageThreshold>
      <weakClassifiers>
        <_>
          <internalNodes>
            0 -1 226 -1.3697247020900249e-02</internalNodes>
          <leafValues>
            1.7678099870681763e-01 -7.3095339536666870e-01</leafValues></_>
        <_>
          <internalNodes>
            0 -1 8 4.6350732445716858e-02</internalNodes>
          <leafValues>
            -6.8884617090225220e-01 1.1584972590208054e-01</leafValues></_>
        <_>
          <internalNodes>
            0 -1 66 3.9093621075153351e-02</internalNodes>
          <leafValues>
            -2.9659947752952576e-01 4.3427801132202148e-01</leafValues></_>
        <_>
          <internalNodes>
            0 -1 2 3.2662518788129091e-03</internalNodes>
          <leafValues>
            -3.2901808619499207e-01 3.6200767755508423e-01</leafValues></_>
        <_>
          <internalNodes>
            0 -1 65 9.2398196458816528e-02</internalNodes>
          <leafValues>
            1.6629451513290405e-01 -7.9941207170486450e-01</leafValues></_>
        <_>
          <internalNodes>
            0 -1 94 -2.1716117858886719e-02</internalNodes>
          <leafValues>
            -4.8504081368446350e-01 2.5678271055221558e-01</leafValues></_>
        <_>
          <internalNodes>
            0 -1 180 -2.6167379692196846e-03</internalNodes>
          <leafValues>
            6.1684906482696533e-01 -1.9635693728923798e-01</leafValues></_>
        <_>
          <internalNodes>
            0 -1 182 2.4954392574727535e-03</internalNodes>
          <leafValues>
            -2.2610074281692505e-01 7.0448863506317139e-01</leafValues></_>
        <_>
          <internalNodes>
            0 -1 80 -4.0082051418721676e-04</internalNodes>
          <leafValues>
            -7.9679214954376221e-01 1.7098362743854523e-01</leafValues></_>
        <_>
          <internalNodes>
            0 -1 106 -1.7730755498632789e-03</internalNodes>
          <leafValues>
            7.0528548955917358e-01 -1.8815606832504272e-01</leafValues></_>
        <_>
          <internalNodes>
            0 -1 111 -4.4181980192661285e-02</internalNodes>
          <leafValues>
            1.6817107796669006e-01 -7.7113330364227295e-01</leafValues></_>
        <_>
          <internalNodes>
            0 -1 212 -2.5869010016322136e-02</internalNodes>
          <leafValues>
            -2.4566555023193359e-01 4.9094298481941223e-01</leafValues></_>
        <_>
          <internalNodes>
            0 -1 105 3.4268903546035290e-03</internalNodes>
          <leafValues>
            -1.5700100362300873e-01 6.1223071813583374e-01</leafValues></_>
        <_>
          <internalNodes>
            0 -1 139 -5.0313922110944986e-04</internalNodes>
          <leafValues>
            -7.7663016319274902e-01 1.5222032368183136e-01</leafValues></_>
        <_>
          <internalNodes>
            0 -1 90 -1.5344811603426933e-02</internalNodes>
          <leafValues>
            6.5052342414855957e-01 -1.7484353482723236e-01</leafValues></_>
        <_>
          <internalNodes>
            0 -1 10 5.2961111068725586e-03</internalNodes>
          <leafValues>
            -1.4527401328086853e-01 7.1307253837585449e-01</leafValues></_>
        <_>
          <internalNodes>
            0 -1 85 -9.4405315816402435e-02</internalNodes>
          <leafValues>
            -9.1852724552154541e-01 1.3561721146106720e-01</leafValues></_>
        <_>
          <internalNodes>
            0 -1 42 1.4809766784310341e-02</internalNodes>
          <leafValues>
            -6.0073441267013550e-01 1.4504666626453400e-01</leafValues></_>
        <_>
          <internalNodes>
            0 -1 149 -8.0591171979904175e-02</internalNodes>
          <leafValues>
            -9.0692603588104248e-01 8.7111398577690125e-02</leafValues></_></weakClassifiers></_>
    <!-- stage 5 -->
    <_>
      <maxWeakCount>25</maxWeakCount>
      <stageThreshold>-1.6477482318878174e+00</stageThreshold>
      <weakClassifiers>
        <_>
          <internalNodes>
            0 -1 59 9.8819462582468987e-03</internalNodes>
          <leafValues>
            -6.6693943738937378e-01 1.3911619782447815e-01</leafValues></_>
        <_>
          <internalNodes>
            0 -1 219 -4.0203254669904709e-02</internalNodes>
          <leafValues>
            -4.5799434185028076e-01 2.9171815514564514e-01</leafValues></_>
        <_>
          <internalNodes>
            0 -1 96 -2.0372722297906876e-02</internalNodes>
          <leafValues>
            3.9879441261291504e-01 -2.9788151383399963e-01</leafValues></_>
        <_>
          <internalNodes>
            0 -1 128 7.2487904690206051e-03</internalNodes>
          <leafValues>
            -2.5908750295639038e-01 3.9265802502632141e-01</leafValues></_>
        <_>
          <internalNodes>
            0 -1 154 2.2300616838037968e-03</internalNodes>
          <leafValues>
            -1.8350973725318909e-01 5.5812883377075195e-01</leafValues></_>
        <_>
          <internalNodes>
            0 -1 155 -1.1930762557312846e-03</internalNodes>
          <leafValues>
            5.4044234752655029e-01 -1.7926520109176636e-01</leafValues></_>
        <_>
          <internalNodes>
            0 -1 12 6.0010444372892380e-02</internalNodes>
          <leafValues>
            -4.2514380812644958e-01 2.3331347107887268e-01</leafValues></_>
        <_>
          <internalNodes>
            0 -1 195 -1.1893235146999359e-02</internalNodes>
          <leafValues>
            4.2460343241691589e-01 -2.4011735618114471e-01</leafValues></_>
        <_>
          <internalNodes>
            0 -1 177 -2.4393051862716675e-03</internalNodes>
          <leafValues>
            5.1400184631347656e-01 -1.5457464754581451e-01</leafValues></_>
        <_>
          <internalNodes>
            0 -1 178 1.3738994020968676e-03</internalNodes>
          <leafValues>
            -1.6350658237934113e-01 5.5175209045410156e-01</leafValues></_>
        <_>
          <internalNodes>
            0 -1 170 2.5928823277354240e-02</internalNodes>
          <leafValues>
            1.0259430855512619e-01 -8.9991307258605957e-01</leafValues></_>
        <_>
          <internalNodes>
            0 -1 98 2.6785233989357948e-02</internalNodes>
          <leafValues>
            -1.6000767052173615e-01 6.2048912048339844e-01</leafValues></_>
        <_>
          <internalNodes>
            0 -1 67 9.9394284188747406e-03</internalNodes>
          <leafValues>
            -1.9359888136386871e-01 4.8200148344039917e-01</leafValues></_>
        <_>
          <internalNodes>
            0 -1 216 -9.0839825570583344e-03</internalNodes>
          <leafValues>
            2.8987032175064087e-01 -3.1632411479949951e-01</leafValues></_>
        <_>
          <internalNodes>
            0 -1 103 -1.5054138377308846e-02</internalNodes>
          <leafValues>
            6.3706344366073608e-01 -1.6748188436031342e-01</leafValues></_>
        <_>
          <internalNodes>
            0 -1 192 -7.4886099901050329e-04</internalNodes>
          <leafValues>
            -6.8825727701187134e-01 1.5806034207344055e-01</leafValues></_>
        <_>
          <internalNodes>
            0 -1 172 -1.7867356073111296e-03</internalNodes>
          <leafValues>
            5.4975038766860962e-01 -1.7954811453819275e-01</leafValues></_>
        <_>
          <internalNodes>
            0 -1 55 4.2964058229699731e-04</internalNodes>
          <leafValues>
            1.0288852453231812e-01 -9.2798012495040894e-01</leafValues></_>
        <_>
          <internalNodes>
            0 -1 25 1.5828929841518402e-02</internalNodes>
          <leafValues>
            -4.6321883797645569e-01 1.9214873015880585e-01</leafValues></_>
        <_>
          <internalNodes>
            0 -1 229 5.0680842250585556e-03</internalNodes>
          <leafValues>
            -1.3259506225585938e-01 7.1501147747039795e-01</leafValues></_>
        <_>
          <internalNodes>
            0 -1 53 1.0597519576549530e-03</internalNodes>
          <leafValues>
            -2.5999394059181213e-01 3.3387315273284912e-01</leafValues></_>
        <_>
          <internalNodes>
            0 -1 199 -4.4598833483178169e-05</internalNodes>
          <leafValues>
            -4.1841098666191101e-01 2.0610967278480530e-01</leafValues></_>
        <_>
          <internalNodes>
            0 -1 148 -5.2041665185242891e-04</internalNodes>
          <leafValues>
            -7.5783890485763550e-01 9.9254295229911804e-02</leafValues></_>
        <_>
          <internalNodes>
            0 -1 190 -2.2555347532033920e-03</internalNodes>
          <leafValues>
            5.3440010547637939e-01 -1.7381455004215240e-01</leafValues></_>
        <_>
          <internalNodes>
            0 -1 127 4.5653805136680603e-02</internalNodes>
          <leafValues>
            1.1082575470209122e-01 -8.8416528701782227e-01</leafValues></_></weakClassifiers></_>
    <!-- stage 6 -->
    <_>
      <maxWeakCount>30</maxWeakCount>
      <stageThreshold>-1.3798646926879883e+00</stageThreshold>
      <weakClassifiers>
        <_>
          <internalNodes>
            0 -1 70 -5.5643310770392418e-03</internalNodes>
          <leafValues>
            3.8019168376922607e-01 -6.0685628652572632e-01</leafValues></_>
        <_>
          <internalNodes>
            0 -1 223 -4.6553630381822586e-03</internalNodes>
          <leafValues>
            2.7161329984664917e-01 -4.5999917387962341e-01</leafValues></_>
        <_>
          <internalNodes>
            0 -1 3 -7.9673819243907928e-02</internalNodes>
          <leafValues>
            -5.0509446859359741e-01 2.0071871578693390e-01</leafValues></_>
        <_>
          <internalNodes>
            0 -1 122 -5.7482093572616577e-02</internalNodes>
          <leafValues>
            1.1439291387796402e-01 -7.1452748775482178e-01</leafValues></_>
        <_>
          <internalNodes>
            0 -1 97 -8.6513644782826304e-04</internalNodes>
          <leafValues>
            -8.6850613355636597e-01 1.1931002140045166e-01</leafValues></_>
        <_>
          <internalNodes>
            0 -1 197 -1.9227073062211275e-03</internalNodes>
          <leafValues>
            4.1657471656799316e-01 -2.1592901647090912e-01</leafValues></_>
        <_>
          <internalNodes>
            0 -1 24 8.5554420948028564e-02</internalNodes>
          <leafValues>
            1.1482574790716171e-01 -8.9164054393768311e-01</leafValues></_>
        <_>
          <internalNodes>
            0 -1 202 -2.7292915619909763e-03</internalNodes>
          <leafValues>
            4.4128748774528503e-01 -2.0913381874561310e-01</leafValues></_>
        <_>
          <internalNodes>
            0 -1 207 -1.6988476272672415e-03</internalNodes>
          <leafValues>
            1.8583390116691589e-01 -4.1062277555465698e-01</leafValues></_>
        <_>
          <internalNodes>
            0 -1 97 6.3067220617085695e-04</internalNodes>
          <leafValues>
            1.0355611145496368e-01 -7.9529416561126709e-01</leafValues></_>
        <_>
          <internalNodes>
            0 -1 193 -1.3420463073998690e-03</internalNodes>
          <leafValues>
            4.1744846105575562e-01 -2.0333898067474365e-01</leafValues></_>
        <_>
          <internalNodes>
            0 -1 161 3.3421968109905720e-03</internalNodes>
          <leafValues>
            9.2953637242317200e-02 -8.9459097385406494e-01</leafValues></_>
        <_>
          <internalNodes>
            0 -1 27 -1.6769191250205040e-02</internalNodes>
          <leafValues>
            5.2990663051605225e-01 -1.5769398212432861e-01</leafValues></_>
        <_>
          <internalNodes>
            0 -1 208 5.5664088577032089e-03</internalNodes>
          <leafValues>
            -2.7145591378211975e-01 4.0281963348388672e-01</leafValues></_>
        <_>
          <internalNodes>
            0 -1 33 -5.6991897523403168e-02</internalNodes>
          <leafValues>
            -4.9791157245635986e-01 1.7045664787292480e-01</leafValues></_>
        <_>
          <internalNodes>
            0 -1 77 -1.9952729344367981e-03</internalNodes>
          <leafValues>
            6.9186651706695557e-01 -1.3005593419075012e-01</leafValues></_>
        <_>
          <internalNodes>
            0 -1 121 -2.9586687684059143e-02</internalNodes>
          <leafValues>
            -9.1827875375747681e-01 9.6947684884071350e-02</leafValues></_>
        <_>
          <internalNodes>
            0 -1 104 1.9673727452754974e-02</internalNodes>
          <leafValues>
            1.3876608014106750e-01 -4.6050915122032166e-01</leafValues></_>
        <_>
          <internalNodes>
            0 -1 37 -3.7912051193416119e-03</internalNodes>
          <leafValues>
            3.5857778787612915e-01 -2.4143293499946594e-01</leafValues></_>
        <_>
          <internalNodes>
            0 -1 146 -1.7455829074606299e-03</internalNodes>
          <leafValues>
            4.1741669178009033e-01 -1.7898072302341461e-01</leafValues></_>
        <_>
          <internalNodes>
            0 -1 73 -5.6613847613334656e-02</internalNodes>
          <leafValues>
            6.3157379627227783e-01 -1.2064863741397858e-01</leafValues></_>
        <_>
          <internalNodes>
            0 -1 78 4.4718787074089050e-02</internalNodes>
          <leafValues>
            -1.4918792247772217e-01 5.2440428733825684e-01</leafValues></_>
        <_>
          <internalNodes>
            0 -1 206 -4.0305513539351523e-04</internalNodes>
          <leafValues>
            -6.7186802625656128e-01 1.2639564275741577e-01</leafValues></_>
        <_>
          <internalNodes>
            0 -1 125 1.9885343499481678e-03</internalNodes>
          <leafValues>
            -1.7804904282093048e-01 4.5692244172096252e-01</leafValues></_>
        <_>
          <internalNodes>
            0 -1 18 8.0960034392774105e-04</internalNodes>
          <leafValues>
            -1.4727441966533661e-01 5.1331782341003418e-01</leafValues></_>
        <_>
          <internalNodes>
            0 -1 205 9.4037421513348818e-04</internalNodes>
          <leafValues>
            9.0202160179615021e-02 -9.2963284254074097e-01</leafValues></_>
        <_>
          <internalNodes>
            0 -1 14 2.2612344473600388e-02</internalNodes>
          <leafValues>
            -4.0869027376174927e-01 1.5502026677131653e-01</leafValues></_>
        <_>
          <internalNodes>
            0 -1 222 -5.5175735615193844e-03</internalNodes>
          <leafValues>
            4.5435342192649841e-01 -1.7394697666168213e-01</leafValues></_>
        <_>
          <internalNodes>
            0 -1 194 6.6999150440096855e-03</internalNodes>
          <leafValues>
            9.8194964230060577e-02 -8.2132160663604736e-01</leafValues></_>
        <_>
          <internalNodes>
            0 -1 141 -9.1458059614524245e-04</internalNodes>
          <leafValues>
            3.6500999331474304e-01 -2.2469258308410645e-01</leafValues></_></weakClassifiers></_>
    <!-- stage 7 -->
    <_>
      <maxWeakCount>33</maxWeakCount>
      <stageThreshold>-1.5168209075927734e+00</stageThreshold>
      <weakClassifiers>
        <_>
          <internalNodes>
            0 -1 225 -1.8431410193443298e-02</internalNodes>
          <leafValues>
            1.4044944196939468e-02 -6.6367906332015991e-01</leafValues></_>
        <_>
          <internalNodes>
            0 -1 4 2.7599390596151352e-02</internalNodes>
          <leafValues>
            -6.7534869909286499e-01 6.9678828120231628e-02</leafValues></_>
        <_>
          <internalNodes>
            0 -1 158 9.9226962774991989e-03</internalNodes>
          <leafValues>
            -3.2103428244590759e-01 2.5674381852149963e-01</leafValues></_>
        <_>
          <internalNodes>
            0 -1 157 -9.4532310962677002e-02</internalNodes>
          <leafValues>
            -2.9807031154632568e-01 3.1148651242256165e-01</leafValues></_>
        <_>
          <internalNodes>
            0 -1 136 -1.7917747609317303e-03</internalNodes>
          <leafValues>
            4.2794752120971680e-01 -1.9943264126777649e-01</leafValues></_>
        <_>
          <internalNodes>
            0 -1 40 1.3180607929825783e-03</internalNodes>
          <leafValues>
            1.8426917493343353e-01 -4.1310724616050720e-01</leafValues></_>
        <_>
          <internalNodes>
            0 -1 46 -5.5287999566644430e-04</internalNodes>
          <leafValues>
            2.1578329801559448e-01 -3.3892112970352173e-01</leafValues></_>
        <_>
          <internalNodes>
            0 -1 221 -8.3435466513037682e-03</internalNodes>
          <leafValues>
            4.2652165889739990e-01 -1.8190033733844757e-01</leafValues></_>
        <_>
          <internalNodes>
            0 -1 92 1.6785003244876862e-03</internalNodes>
          <leafValues>
            -1.5945130586624146e-01 4.1346773505210876e-01</leafValues></_>
        <_>
          <internalNodes>
            0 -1 20 3.4217836800962687e-03</internalNodes>
          <leafValues>
            -2.4259988963603973e-01 2.8419509530067444e-01</leafValues></_>
        <_>
          <internalNodes>
            0 -1 116 -2.9363906942307949e-03</internalNodes>
          <leafValues>
            4.5569053292274475e-01 -1.7845016717910767e-01</leafValues></_>
        <_>
          <internalNodes>
            0 -1 183 -1.3330075889825821e-02</internalNodes>
          <leafValues>
            -7.5092113018035889e-01 9.6745528280735016e-02</leafValues></_>
        <_>
          <internalNodes>
            0 -1 117 3.1479848548769951e-03</internalNodes>
          <leafValues>
            -1.7161846160888672e-01 4.4742703437805176e-01</leafValues></_>
        <_>
          <internalNodes>
            0 -1 140 5.3859245963394642e-04</internalNodes>
          <leafValues>
            1.1209051311016083e-01 -7.1675926446914673e-01</leafValues></_>
        <_>
          <internalNodes>
            0 -1 191 -3.7436499260365963e-03</internalNodes>
          <leafValues>
            4.6281164884567261e-01 -1.6943973302841187e-01</leafValues></_>
        <_>
          <internalNodes>
            0 -1 135 -2.0395426079630852e-02</internalNodes>
          <leafValues>
            9.7391508519649506e-02 -8.0753922462463379e-01</leafValues></_>
        <_>
          <internalNodes>
            0 -1 181 -7.2639167774468660e-04</internalNodes>
          <leafValues>
            2.9999950528144836e-01 -2.4935615062713623e-01</leafValues></_>
        <_>
          <internalNodes>
            0 -1 184 -1.6129401046782732e-03</internalNodes>
          <leafValues>
            3.3259335160255432e-01 -2.1547788381576538e-01</leafValues></_>
        <_>
          <internalNodes>
            0 -1 147 -1.4608147554099560e-02</internalNodes>
          <leafValues>
            -8.5828393697738647e-01 8.9612998068332672e-02</leafValues></_>
        <_>
          <internalNodes>
            0 -1 160 -2.4839490652084351e-03</internalNodes>
          <leafValues>
            4.5778980851173401e-01 -1.5694338083267212e-01</leafValues></_>
        <_>
          <internalNodes>
            0 -1 185 1.9905548542737961e-02</internalNodes>
          <leafValues>
            8.6564414203166962e-02 -7.6318246126174927e-01</leafValues></_>
        <_>
          <internalNodes>
            0 -1 211 -5.8722787071019411e-04</internalNodes>
          <leafValues>
            -8.6296856403350830e-01 5.3231939673423767e-02</leafValues></_>
        <_>
          <internalNodes>
            0 -1 217 -7.6570464298129082e-03</internalNodes>
          <leafValues>
            3.9455732703208923e-01 -1.7326487600803375e-01</leafValues></_>
        <_>
          <internalNodes>
            0 -1 35 1.4086483046412468e-02</internalNodes>
          <leafValues>
            -2.5150874257087708e-01 2.4568876624107361e-01</leafValues></_>
        <_>
          <internalNodes>
            0 -1 82 1.2107150629162788e-02</internalNodes>
          <leafValues>
            -2.8428253531455994e-01 2.2699417173862457e-01</leafValues></_>
        <_>
          <internalNodes>
            0 -1 56 6.0696965083479881e-03</internalNodes>
          <leafValues>
            -1.6522409021854401e-01 4.2316707968711853e-01</leafValues></_>
        <_>
          <internalNodes>
            0 -1 151 -2.7630972908809781e-04</internalNodes>
          <leafValues>
            3.6331608891487122e-01 -1.8591710925102234e-01</leafValues></_>
        <_>
          <internalNodes>
            0 -1 143 1.9620237872004509e-03</internalNodes>
          <leafValues>
            -1.7828688025474548e-01 4.0176394581794739e-01</leafValues></_>
        <_>
          <internalNodes>
            0 -1 186 4.3228017166256905e-03</internalNodes>
          <leafValues>
            -9.2653885483741760e-02 6.8888986110687256e-01</leafValues></_>
        <_>
          <internalNodes>
            0 -1 41 1.0897162137553096e-03</internalNodes>
          <leafValues>
            -2.8436160087585449e-01 2.6205983757972717e-01</leafValues></_>
        <_>
          <internalNodes>
            0 -1 142 -3.6045033484697342e-02</internalNodes>
          <leafValues>
            -8.6037665605545044e-01 6.6636502742767334e-02</leafValues></_>
        <_>
          <internalNodes>
            0 -1 188 -2.3586520925164223e-02</internalNodes>
          <leafValues>
            -8.3635050058364868e-01 6.0227867215871811e-02</leafValues></_>
        <_>
          <internalNodes>
            0 -1 144 -8.3585353568196297e-03</internalNodes>
          <leafValues>
            -7.9942291975021362e-01 6.4405314624309540e-02</leafValues></_></weakClassifiers></_>
    <!-- stage 8 -->
    <_>
      <maxWeakCount>34</maxWeakCount>
      <stageThreshold>-1.4812735319137573e+00</stageThreshold>
      <weakClassifiers>
        <_>
          <internalNodes>
            0 -1 227 -1.4692810364067554e-02</internalNodes>
          <leafValues>
            1.5151515603065491e-01 -6.3281250000000000e-01</leafValues></_>
        <_>
          <internalNodes>
            0 -1 30 1.5213026199489832e-03</internalNodes>
          <leafValues>
            -3.5299262404441833e-01 2.6389011740684509e-01</leafValues></_>
        <_>
          <internalNodes>
            0 -1 102 -5.3051272407174110e-03</internalNodes>
          <leafValues>
            -1.8989247083663940e-01 4.2965245246887207e-01</leafValues></_>
        <_>
          <internalNodes>
            0 -1 32 7.5455084443092346e-03</internalNodes>
          <leafValues>
            1.1156077682971954e-01 -6.6477137804031372e-01</leafValues></_>
        <_>
          <internalNodes>
            0 -1 13 8.3266124129295349e-03</internalNodes>
          <leafValues>
            -2.2707106173038483e-01 3.1813156604766846e-01</leafValues></_>
        <_>
          <internalNodes>
            0 -1 204 5.6667427998036146e-04</internalNodes>
          <leafValues>
            -2.1270288527011871e-01 3.0685636401176453e-01</leafValues></_>
        <_>
          <internalNodes>
            0 -1 133 1.0216173250228167e-03</internalNodes>
          <leafValues>
            8.8278338313102722e-02 -7.0559489727020264e-01</leafValues></_>
        <_>
          <internalNodes>
            0 -1 112 9.6704758470878005e-04</internalNodes>
          <leafValues>
            -1.2335741519927979e-01 5.2604752779006958e-01</leafValues></_>
        <_>
          <internalNodes>
            0 -1 45 -3.8097186479717493e-03</internalNodes>
          <leafValues>
            -6.6744607686996460e-01 9.5039747655391693e-02</leafValues></_>
        <_>
          <internalNodes>
            0 -1 114 3.7589215207844973e-03</internalNodes>
          <leafValues>
            -2.1878968179225922e-01 3.0752333998680115e-01</leafValues></_>
        <_>
          <internalNodes>
            0 -1 63 2.6179950684309006e-02</internalNodes>
          <leafValues>
            9.5338575541973114e-02 -6.3476365804672241e-01</leafValues></_>
        <_>
          <internalNodes>
            0 -1 175 -1.1439398862421513e-02</internalNodes>
          <leafValues>
            -6.8905639648437500e-01 8.8094003498554230e-02</leafValues></_>
        <_>
          <internalNodes>
            0 -1 91 2.7491350192576647e-03</internalNodes>
          <leafValues>
            -1.8662992119789124e-01 3.9326798915863037e-01</leafValues></_>
        <_>
          <internalNodes>
            0 -1 86 5.6961239315569401e-03</internalNodes>
          <leafValues>
            -1.3483619689941406e-01 5.1790130138397217e-01</leafValues></_>
        <_>
          <internalNodes>
            0 -1 74 1.6967318952083588e-03</internalNodes>
          <leafValues>
            1.1584515869617462e-01 -6.2717676162719727e-01</leafValues></_>
        <_>
          <internalNodes>
            0 -1 84 -2.1988768130540848e-03</internalNodes>
          <leafValues>
            4.2282009124755859e-01 -1.6013304889202118e-01</leafValues></_>
        <_>
          <internalNodes>
            0 -1 95 -3.7071403115987778e-02</internalNodes>
          <leafValues>
            6.0022515058517456e-01 -1.0299216210842133e-01</leafValues></_>
        <_>
          <internalNodes>
            0 -1 100 2.6885289698839188e-03</internalNodes>
          <leafValues>
            -1.5517929196357727e-01 4.0857791900634766e-01</leafValues></_>
        <_>
          <internalNodes>
            0 -1 124 1.4780886471271515e-02</internalNodes>
          <leafValues>
            -1.3223905861377716e-01 4.8954215645790100e-01</leafValues></_>
        <_>
          <internalNodes>
            0 -1 233 -4.0100386831909418e-04</internalNodes>
          <leafValues>
            -5.2851235866546631e-01 1.2548860907554626e-01</leafValues></_>
        <_>
          <internalNodes>
            0 -1 134 -1.1551480740308762e-02</internalNodes>
          <leafValues>
            -9.0010720491409302e-01 5.1355101168155670e-02</leafValues></_>
        <_>
          <internalNodes>
            0 -1 48 5.3359940648078918e-02</internalNodes>
          <leafValues>
            4.5353453606367111e-02 -9.6815073490142822e-01</leafValues></_>
        <_>
          <internalNodes>
            0 -1 203 4.3001691810786724e-03</internalNodes>
          <leafValues>
            -1.1823018640279770e-01 5.9464514255523682e-01</leafValues></_>
        <_>
          <internalNodes>
            0 -1 201 -3.3328295685350895e-03</internalNodes>
          <leafValues>
            5.0954252481460571e-01 -1.0945233702659607e-01</leafValues></_>
        <_>
          <internalNodes>
            0 -1 83 1.2239938601851463e-02</internalNodes>
          <leafValues>
            9.6328437328338623e-02 -6.8277460336685181e-01</leafValues></_>
        <_>
          <internalNodes>
            0 -1 162 3.6228529643267393e-04</internalNodes>
          <leafValues>
            7.6159544289112091e-02 -6.7113131284713745e-01</leafValues></_>
        <_>
          <internalNodes>
            0 -1 11 1.6601558309048414e-03</internalNodes>
          <leafValues>
            -2.5158584117889404e-01 2.2315736114978790e-01</leafValues></_>
        <_>
          <internalNodes>
            0 -1 7 1.4752575755119324e-01</internalNodes>
          <leafValues>
            9.1200470924377441e-02 -6.6252022981643677e-01</leafValues></_>
        <_>
          <internalNodes>
            0 -1 52 1.8138982355594635e-02</internalNodes>
          <leafValues>
            -4.1003045439720154e-01 1.2953962385654449e-01</leafValues></_>
        <_>
          <internalNodes>
            0 -1 131 5.9665739536285400e-03</internalNodes>
          <leafValues>
            -1.6655828058719635e-01 3.9317908883094788e-01</leafValues></_>
        <_>
          <internalNodes>
            0 -1 176 -2.5856928899884224e-02</internalNodes>
          <leafValues>
            -9.5545387268066406e-01 6.4341820776462555e-02</leafValues></_>
        <_>
          <internalNodes>
            0 -1 119 2.6578286197036505e-03</internalNodes>
          <leafValues>
            4.3039958924055099e-02 -8.7967830896377563e-01</leafValues></_>
        <_>
          <internalNodes>
            0 -1 189 -4.4751109089702368e-04</internalNodes>
          <leafValues>
            2.8896039724349976e-01 -2.1112799644470215e-01</leafValues></_>
        <_>
          <internalNodes>
            0 -1 39 -1.3757473789155483e-03</internalNodes>
          <leafValues>
            -5.6959509849548340e-01 1.0411154478788376e-01</leafValues></_></weakClassifiers></_>
    <!-- stage 9 -->
    <_>
      <maxWeakCount>37</maxWeakCount>
      <stageThreshold>-1.4600918292999268e+00</stageThreshold>
      <weakClassifiers>
        <_>
          <internalNodes>
            0 -1 224 -1.5967711806297302e-02</internalNodes>
          <leafValues>
            -1.2280701845884323e-01 -6.8360501527786255e-01</leafValues></_>
        <_>
          <internalNodes>
            0 -1 1 2.2707246243953705e-02</internalNodes>
          <leafValues>
            -6.7977756261825562e-01 3.0691277235746384e-02</leafValues></_>
        <_>
          <internalNodes>
            0 -1 218 1.0132140014320612e-03</internalNodes>
          <leafValues>
            -2.1698409318923950e-01 3.4805989265441895e-01</leafValues></_>
        <_>
          <internalNodes>
            0 -1 187 9.2341396957635880e-03</internalNodes>
          <leafValues>
            -1.6425351798534393e-01 4.3176382780075073e-01</leafValues></_>
        <_>
          <internalNodes>
            0 -1 23 3.0299602076411247e-02</internalNodes>
          <leafValues>
            9.5812119543552399e-02 -8.1547760963439941e-01</leafValues></_>
        <_>
          <internalNodes>
            0 -1 26 -1.4785096282139421e-03</internalNodes>
          <leafValues>
            3.6995166540145874e-01 -1.8913263082504272e-01</leafValues></_>
        <_>
          <internalNodes>
            0 -1 71 5.8890087530016899e-04</internalNodes>
          <leafValues>
            1.6822716593742371e-01 -3.7510314583778381e-01</leafValues></_>
        <_>
          <internalNodes>
            0 -1 101 -2.6815854012966156e-02</internalNodes>
          <leafValues>
            -7.7599424123764038e-01 7.2180755436420441e-02</leafValues></_>
        <_>
          <internalNodes>
            0 -1 22 1.8417192623019218e-03</internalNodes>
          <leafValues>
            -1.5794442594051361e-01 3.5653221607208252e-01</leafValues></_>
        <_>
          <internalNodes>
            0 -1 198 -1.0468958644196391e-03</internalNodes>
          <leafValues>
            4.5955544710159302e-01 -1.2427987903356552e-01</leafValues></_>
        <_>
          <internalNodes>
            0 -1 19 -1.0063151421491057e-04</internalNodes>
          <leafValues>
            -4.7332215309143066e-01 1.2654930353164673e-01</leafValues></_>
        <_>
          <internalNodes>
            0 -1 38 -8.4934290498495102e-04</internalNodes>
          <leafValues>
            -6.9589614868164063e-01 6.5711893141269684e-02</leafValues></_>
        <_>
          <internalNodes>
            0 -1 120 -1.5427935868501663e-03</internalNodes>
          <leafValues>
            3.7618798017501831e-01 -1.5883690118789673e-01</leafValues></_>
        <_>
          <internalNodes>
            0 -1 9 1.4013273175805807e-04</internalNodes>
          <leafValues>
            -1.6378085315227509e-01 3.5682010650634766e-01</leafValues></_>
        <_>
          <internalNodes>
            0 -1 29 5.8313114568591118e-03</internalNodes>
          <leafValues>
            -4.2650496959686279e-01 1.3173952698707581e-01</leafValues></_>
        <_>
          <internalNodes>
            0 -1 64 3.5224325954914093e-02</internalNodes>
          <leafValues>
            8.4753789007663727e-02 -6.5960168838500977e-01</leafValues></_>
        <_>
          <internalNodes>
            0 -1 34 2.4726722389459610e-02</internalNodes>
          <leafValues>
            5.0746802240610123e-02 -8.3468502759933472e-01</leafValues></_>
        <_>
          <internalNodes>
            0 -1 126 8.6182926315814257e-04</internalNodes>
          <leafValues>
            6.1854265630245209e-02 -6.8398737907409668e-01</leafValues></_>
        <_>
          <internalNodes>
            0 -1 115 -2.5827358476817608e-03</internalNodes>
          <leafValues>
            4.4420227408409119e-01 -1.4246547222137451e-01</leafValues></_>
        <_>
          <internalNodes>
            0 -1 17 -6.6224083304405212e-02</internalNodes>
          <leafValues>
            -6.9535565376281738e-01 8.6315743625164032e-02</leafValues></_>
        <_>
          <internalNodes>
            0 -1 54 -1.6433987766504288e-03</internalNodes>
          <leafValues>
            3.4094592928886414e-01 -1.7524962127208710e-01</leafValues></_>
        <_>
          <internalNodes>
            0 -1 107 6.6653068643063307e-05</internalNodes>
          <leafValues>
            1.1873719096183777e-01 -4.7619751095771790e-01</leafValues></_>
        <_>
          <internalNodes>
            0 -1 93 1.6047164797782898e-02</internalNodes>
          <leafValues>
            7.1198396384716034e-02 -6.9357740879058838e-01</leafValues></_>
        <_>
          <internalNodes>
            0 -1 214 -1.1785782873630524e-02</internalNodes>
          <leafValues>
            2.1599310636520386e-01 -2.6799049973487854e-01</leafValues></_>
        <_>
          <internalNodes>
            0 -1 163 -2.8890068642795086e-03</internalNodes>
          <leafValues>
            5.8271586894989014e-01 -1.0012623667716980e-01</leafValues></_>
        <_>
          <internalNodes>
            0 -1 167 -1.0593739338219166e-02</internalNodes>
          <leafValues>
            -7.8470569849014282e-01 8.4286496043205261e-02</leafValues></_>
        <_>
          <internalNodes>
            0 -1 156 6.6215982660651207e-03</internalNodes>
          <leafValues>
            -2.6139912009239197e-01 2.1840469539165497e-01</leafValues></_>
        <_>
          <internalNodes>
            0 -1 87 1.8628181423991919e-03</internalNodes>
          <leafValues>
            -1.4384555816650391e-01 4.4947665929794312e-01</leafValues></_>
        <_>
          <internalNodes>
            0 -1 60 3.8833713624626398e-03</internalNodes>
          <leafValues>
            7.5075715780258179e-02 -8.8383305072784424e-01</leafValues></_>
        <_>
          <internalNodes>
            0 -1 118 -1.3564813416451216e-03</internalNodes>
          <leafValues>
            -8.5139721632003784e-01 4.8814207315444946e-02</leafValues></_>
        <_>
          <internalNodes>
            0 -1 58 2.0225087646394968e-03</internalNodes>
          <leafValues>
            -1.7236103117465973e-01 3.5015857219696045e-01</leafValues></_>
        <_>
          <internalNodes>
            0 -1 145 -1.3505522161722183e-02</internalNodes>
          <leafValues>
            -7.1279561519622803e-01 8.3375252783298492e-02</leafValues></_>
        <_>
          <internalNodes>
            0 -1 169 -2.0277574658393860e-03</internalNodes>
          <leafValues>
            3.9410701394081116e-01 -1.5527102351188660e-01</leafValues></_>
        <_>
          <internalNodes>
            0 -1 173 -2.1949552465230227e-03</internalNodes>
          <leafValues>
            3.6538660526275635e-01 -1.5848699212074280e-01</leafValues></_>
        <_>
          <internalNodes>
            0 -1 62 -1.3380337506532669e-02</internalNodes>
          <leafValues>
            -5.0756931304931641e-01 1.3590863347053528e-01</leafValues></_>
        <_>
          <internalNodes>
            0 -1 210 5.2210390567779541e-03</internalNodes>
          <leafValues>
            -1.4676336944103241e-01 3.8818761706352234e-01</leafValues></_>
        <_>
          <internalNodes>
            0 -1 75 -3.1821280717849731e-02</internalNodes>
          <leafValues>
            -7.1678543090820313e-01 8.1835202872753143e-02</leafValues></_></weakClassifiers></_></stages>
  <features>
    <_>
      <rects>
        <_>
          0 0 15 24 -1.</_>
        <_>
          5 0 5 24 2.</_></rects>
      <tilted>0</tilted></_>
    <_>
      <rects>
        <_>
          0 0 12 22 -1.</_>
        <_>
          6 0 6 22 2.</_></rects>
      <tilted>0</tilted></_>
    <_>
      <rects>
        <_>
          0 2 4 18 -1.</_>
        <_>
          0 2 2 9 2.</_>
        <_>
          2 11 2 9 2.</_></rects>
      <tilted>0</tilted></_>
    <_>
      <rects>
        <_>
          0 2 15 8 -1.</_>
        <_>
          5 2 5 8 2.</_></rects>
      <tilted>0</tilted></_>
    <_>
      <rects>
        <_>
          0 2 10 16 -1.</_>
        <_>
          5 2 5 16 2.</_></rects>
      <tilted>0</tilted></_>
    <_>
      <rects>
        <_>
          0 3 10 14 -1.</_>
        <_>
          5 3 5 14 2.</_></rects>
      <tilted>0</tilted></_>
    <_>
      <rects>
        <_>
          0 4 2 11 -1.</_>
        <_>
          1 4 1 11 2.</_></rects>
      <tilted>0</tilted></_>
    <_>
      <rects>
        <_>
          0 4 37 16 -1.</_>
        <_>
          0 12 37 8 2.</_></rects>
      <tilted>0</tilted></_>
    <_>
      <rects>
        <_>
          0 5 22 14 -1.</_>
        <_>
          11 5 11 14 2.</_></rects>
      <tilted>0</tilted></_>
    <_>
      <rects>
        <_>
          0 6 2 1 -1.</_>
        <_>
          1 6 1 1 2.</_></rects>
      <tilted>0</tilted></_>
    <_>
      <rects>
        <_>
          0 6 2 17 -1.</_>
        <_>
          1 6 1 17 2.</_></rects>
      <tilted>0</tilted></_>
    <_>
      <rects>
        <_>
          0 7 4 12 -1.</_>
        <_>
          0 7 2 6 2.</_>
        <_>
          2 13 2 6 2.</_></rects>
      <tilted>0</tilted></_>
    <_>
      <rects>
        <_>
          0 7 28 12 -1.</_>
        <_>
          14 7 14 12 2.</_></rects>
      <tilted>0</tilted></_>
    <_>
      <rects>
        <_>
          0 8 6 6 -1.</_>
        <_>
          3 8 3 6 2.</_></rects>
      <tilted>0</tilted></_>
    <_>
      <rects>
        <_>
          0 8 22 5 -1.</_>
        <_>
          11 8 11 5 2.</_></rects>
      <tilted>0</tilted></_>
    <_>
      <rects>
        <_>
          0 9 22 11 -1.</_>
        <_>
          11 9 11 11 2.</_></rects>
      <tilted>0</tilted></_>
    <_>
      <rects>
        <_>
          0 9 32 6 -1.</_>
        <_>
          16 9 16 6 2.</_></rects>
      <tilted>0</tilted></_>
    <_>
      <rects>
        <_>
          0 12 44 6 -1.</_>
        <_>
          0 15 44 3 2.</_></rects>
      <tilted>0</tilted></_>
    <_>
      <rects>
        <_>
          0 13 2 2 -1.</_>
        <_>
          1 13 1 2 2.</_></rects>
      <tilted>0</tilted></_>
    <_>
      <rects>
        <_>
          0 16 1 2 -1.</_>
        <_>
          0 17 1 1 2.</_></rects>
      <tilted>0</tilted></_>
    <_>
      <rects>
        <_>
          0 17 6 3 -1.</_>
        <_>
          3 17 3 3 2.</_></rects>
      <tilted>0</tilted></_>
    <_>
      <rects>
        <_>
          0 18 10 6 -1.</_>
        <_>
          0 18 5 3 2.</_>
        <_>
          5 21 5 3 2.</_></rects>
      <tilted>0</tilted></_>
    <_>
      <rects>
        <_>
          0 18 14 2 -1.</_>
        <_>
          0 18 7 1 2.</_>
        <_>
          7 19 7 1 2.</_></rects>
      <tilted>0</tilted></_>
    <_>
      <rects>
        <_>
          1 0 10 6 -1.</_>
        <_>
          6 0 5 6 2.</_></rects>
      <tilted>0</tilted></_>
    <_>
      <rects>
        <_>
          1 0 22 11 -1.</_>
        <_>
          12 0 11 11 2.</_></rects>
      <tilted>0</tilted></_>
    <_>
      <rects>
        <_>
          1 1 6 22 -1.</_>
        <_>
          4 1 3 22 2.</_></rects>
      <tilted>0</tilted></_>
    <_>
      <rects>
        <_>
          1 4 10 2 -1.</_>
        <_>
          1 4 5 1 2.</_>
        <_>
          6 5 5 1 2.</_></rects>
      <tilted>0</tilted></_>
    <_>
      <rects>
        <_>
          1 4 38 1 -1.</_>
        <_>
          20 4 19 1 2.</_></rects>
      <tilted>0</tilted></_>
    <_>
      <rects>
        <_>
          1 7 2 15 -1.</_>
        <_>
          2 7 1 15 2.</_></rects>
      <tilted>0</tilted></_>
    <_>
      <rects>
        <_>
          1 7 18 3 -1.</_>
        <_>
          10 7 9 3 2.</_></rects>
      <tilted>0</tilted></_>
    <_>
      <rects>
        <_>
          1 8 2 9 -1.</_>
        <_>
          2 8 1 9 2.</_></rects>
      <tilted>0</tilted></_>
    <_>
      <rects>
        <_>
          1 8 36 6 -1.</_>
        <_>
          13 8 12 6 2.</_></rects>
      <tilted>0</tilted></_>
    <_>
      <rects>
        <_>
          1 11 4 5 -1.</_>
        <_>
          3 11 2 5 2.</_></rects>
      <tilted>0</tilted></_>
    <_>
      <rects>
        <_>
          1 12 12 6 -1.</_>
        <_>
          5 12 4 6 2.</_></rects>
      <tilted>0</tilted></_>
    <_>
      <rects>
        <_>
          1 15 6 6 -1.</_>
        <_>
          4 15 3 6 2.</_></rects>
      <tilted>0</tilted></_>
    <_>
      <rects>
        <_>
          1 15 8 6 -1.</_>
        <_>
          5 15 4 6 2.</_></rects>
      <tilted>0</tilted></_>
    <_>
      <rects>
        <_>
          1 16 40 8 -1.</_>
        <_>
          1 20 40 4 2.</_></rects>
      <tilted>0</tilted></_>
    <_>
      <rects>
        <_>
          1 20 10 4 -1.</_>
        <_>
          1 20 5 2 2.</_>
        <_>
          6 22 5 2 2.</_></rects>
      <tilted>0</tilted></_>
    <_>
      <rects>
        <_>
          2 0 2 4 -1.</_>
        <_>
          3 0 1 4 2.</_></rects>
      <tilted>0</tilted></_>
    <_>
      <rects>
        <_>
          2 0 2 12 -1.</_>
        <_>
          2 0 1 6 2.</_>
        <_>
          3 6 1 6 2.</_></rects>
      <tilted>0</tilted></_>
    <_>
      <rects>
        <_>
          2 0 2 13 -1.</_>
        <_>
          3 0 1 13 2.</_></rects>
      <tilted>0</tilted></_>
    <_>
      <rects>
        <_>
          2 2 2 14 -1.</_>
        <_>
          2 9 2 7 2.</_></rects>
      <tilted>0</tilted></_>
    <_>
      <rects>
        <_>
          2 2 10 22 -1.</_>
        <_>
          7 2 5 22 2.</_></rects>
      <tilted>0</tilted></_>
    <_>
      <rects>
        <_>
          2 3 6 14 -1.</_>
        <_>
          5 3 3 14 2.</_></rects>
      <tilted>0</tilted></_>
    <_>
      <rects>
        <_>
          2 3 6 19 -1.</_>
        <_>
          5 3 3 19 2.</_></rects>
      <tilted>0</tilted></_>
    <_>
      <rects>
        <_>
          2 5 14 19 -1.</_>
        <_>
          9 5 7 19 2.</_></rects>
      <tilted>0</tilted></_>
    <_>
      <rects>
        <_>
          2 6 4 12 -1.</_>
        <_>
          2 6 2 6 2.</_>
        <_>
          4 12 2 6 2.</_></rects>
      <tilted>0</tilted></_>
    <_>
      <rects>
        <_>
          2 7 6 9 -1.</_>
        <_>
          5 7 3 9 2.</_></rects>
      <tilted>0</tilted></_>
    <_>
      <rects>
        <_>
          2 7 43 4 -1.</_>
        <_>
          2 9 43 2 2.</_></rects>
      <tilted>0</tilted></_>
    <_>
      <rects>
        <_>
          2 18 40 6 -1.</_>
        <_>
          2 21 40 3 2.</_></rects>
      <tilted>0</tilted></_>
    <_>
      <rects>
        <_>
          3 3 12 10 -1.</_>
        <_>
          9 3 6 10 2.</_></rects>
      <tilted>0</tilted></_>
    <_>
      <rects>
        <_>
          3 7 6 5 -1.</_>
        <_>
          5 7 2 5 2.</_></rects>
      <tilted>0</tilted></_>
    <_>
      <rects>
        <_>
          3 8 20 12 -1.</_>
        <_>
          13 8 10 12 2.</_></rects>
      <tilted>0</tilted></_>
    <_>
      <rects>
        <_>
          3 9 1 10 -1.</_>
        <_>
          3 14 1 5 2.</_></rects>
      <tilted>0</tilted></_>
    <_>
      <rects>
        <_>
          3 20 4 4 -1.</_>
        <_>
          3 20 2 2 2.</_>
        <_>
          5 22 2 2 2.</_></rects>
      <tilted>0</tilted></_>
    <_>
      <rects>
        <_>
          4 0 2 1 -1.</_>
        <_>
          5 0 1 1 2.</_></rects>
      <tilted>0</tilted></_>
    <_>
      <rects>
        <_>
          4 0 4 4 -1.</_>
        <_>
          4 2 4 2 2.</_></rects>
      <tilted>0</tilted></_>
    <_>
      <rects>
        <_>
          4 0 33 8 -1.</_>
        <_>
          4 4 33 4 2.</_></rects>
      <tilted>0</tilted></_>
    <_>
      <rects>
        <_>
          4 2 2 4 -1.</_>
        <_>
          5 2 1 4 2.</_></rects>
      <tilted>0</tilted></_>
    <_>
      <rects>
        <_>
          4 3 2 13 -1.</_>
        <_>
          5 3 1 13 2.</_></rects>
      <tilted>0</tilted></_>
    <_>
      <rects>
        <_>
          4 7 1 8 -1.</_>
        <_>
          4 11 1 4 2.</_></rects>
      <tilted>0</tilted></_>
    <_>
      <rects>
        <_>
          4 8 38 8 -1.</_>
        <_>
          23 8 19 8 2.</_></rects>
      <tilted>0</tilted></_>
    <_>
      <rects>
        <_>
          4 10 12 1 -1.</_>
        <_>
          8 10 4 1 2.</_></rects>
      <tilted>0</tilted></_>
    <_>
      <rects>
        <_>
          4 10 36 4 -1.</_>
        <_>
          22 10 18 4 2.</_></rects>
      <tilted>0</tilted></_>
    <_>
      <rects>
        <_>
          5 0 10 24 -1.</_>
        <_>
          10 0 5 24 2.</_></rects>
      <tilted>0</tilted></_>
    <_>
      <rects>
        <_>
          5 0 22 24 -1.</_>
        <_>
          16 0 11 24 2.</_></rects>
      <tilted>0</tilted></_>
    <_>
      <rects>
        <_>
          5 0 18 6 -1.</_>
        <_>
          5 3 18 3 2.</_></rects>
      <tilted>0</tilted></_>
    <_>
      <rects>
        <_>
          5 1 5 4 -1.</_>
        <_>
          5 3 5 2 2.</_></rects>
      <tilted>0</tilted></_>
    <_>
      <rects>
        <_>
          5 1 7 4 -1.</_>
        <_>
          5 3 7 2 2.</_></rects>
      <tilted>0</tilted></_>
    <_>
      <rects>
        <_>
          5 1 11 4 -1.</_>
        <_>
          5 3 11 2 2.</_></rects>
      <tilted>0</tilted></_>
    <_>
      <rects>
        <_>
          5 5 2 8 -1.</_>
        <_>
          6 5 1 8 2.</_></rects>
      <tilted>0</tilted></_>
    <_>
      <rects>
        <_>
          5 6 40 13 -1.</_>
        <_>
          25 6 20 13 2.</_></rects>
      <tilted>0</tilted></_>
    <_>
      <rects>
        <_>
          5 8 2 5 -1.</_>
        <_>
          6 8 1 5 2.</_></rects>
      <tilted>0</tilted></_>
    <_>
      <rects>
        <_>
          5 18 38 6 -1.</_>
        <_>
          5 18 19 3 2.</_>
        <_>
          24 21 19 3 2.</_></rects>
      <tilted>0</tilted></_>
    <_>
      <rects>
        <_>
          6 0 4 4 -1.</_>
        <_>
          8 0 2 4 2.</_></rects>
      <tilted>0</tilted></_>
    <_>
      <rects>
        <_>
          6 0 10 24 -1.</_>
        <_>
          11 0 5 24 2.</_></rects>
      <tilted>0</tilted></_>
    <_>
      <rects>
        <_>
          6 4 20 4 -1.</_>
        <_>
          6 6 20 2 2.</_></rects>
      <tilted>0</tilted></_>
    <_>
      <rects>
        <_>
          6 9 2 2 -1.</_>
        <_>
          7 9 1 2 2.</_></rects>
      <tilted>0</tilted></_>
    <_>
      <rects>
        <_>
          6 17 38 6 -1.</_>
        <_>
          6 17 19 3 2.</_>
        <_>
          25 20 19 3 2.</_></rects>
      <tilted>0</tilted></_>
    <_>
      <rects>
        <_>
          6 20 4 4 -1.</_>
        <_>
          6 22 4 2 2.</_></rects>
      <tilted>0</tilted></_>
    <_>
      <rects>
        <_>
          7 0 2 2 -1.</_>
        <_>
          8 0 1 2 2.</_></rects>
      <tilted>0</tilted></_>
    <_>
      <rects>
        <_>
          7 0 8 8 -1.</_>
        <_>
          11 0 4 8 2.</_></rects>
      <tilted>0</tilted></_>
    <_>
      <rects>
        <_>
          7 6 14 11 -1.</_>
        <_>
          14 6 7 11 2.</_></rects>
      <tilted>0</tilted></_>
    <_>
      <rects>
        <_>
          7 15 8 9 -1.</_>
        <_>
          11 15 4 9 2.</_></rects>
      <tilted>0</tilted></_>
    <_>
      <rects>
        <_>
          8 4 6 2 -1.</_>
        <_>
          8 5 6 1 2.</_></rects>
      <tilted>0</tilted></_>
    <_>
      <rects>
        <_>
          8 4 26 19 -1.</_>
        <_>
          21 4 13 19 2.</_></rects>
      <tilted>0</tilted></_>
    <_>
      <rects>
        <_>
          8 5 2 14 -1.</_>
        <_>
          9 5 1 14 2.</_></rects>
      <tilted>0</tilted></_>
    <_>
      <rects>
        <_>
          8 6 2 12 -1.</_>
        <_>
          8 6 1 6 2.</_>
        <_>
          9 12 1 6 2.</_></rects>
      <tilted>0</tilted></_>
    <_>
      <rects>
        <_>
          8 14 16 8 -1.</_>
        <_>
          8 14 8 4 2.</_>
        <_>
          16 18 8 4 2.</_></rects>
      <tilted>0</tilted></_>
    <_>
      <rects>
        <_>
          8 17 26 4 -1.</_>
        <_>
          8 17 13 2 2.</_>
        <_>
          21 19 13 2 2.</_></rects>
      <tilted>0</tilted></_>
    <_>
      <rects>
        <_>
          9 1 23 4 -1.</_>
        <_>
          9 3 23 2 2.</_></rects>
      <tilted>0</tilted></_>
    <_>
      <rects>
        <_>
          9 4 2 14 -1.</_>
        <_>
          10 4 1 14 2.</_></rects>
      <tilted>0</tilted></_>
    <_>
      <rects>
        <_>
          9 8 2 10 -1.</_>
        <_>
          9 8 1 5 2.</_>
        <_>
          10 13 1 5 2.</_></rects>
      <tilted>0</tilted></_>
    <_>
      <rects>
        <_>
          9 13 36 4 -1.</_>
        <_>
          9 15 36 2 2.</_></rects>
      <tilted>0</tilted></_>
    <_>
      <rects>
        <_>
          9 15 3 9 -1.</_>
        <_>
          9 18 3 3 2.</_></rects>
      <tilted>0</tilted></_>
    <_>
      <rects>
        <_>
          9 16 26 6 -1.</_>
        <_>
          9 16 13 3 2.</_>
        <_>
          22 19 13 3 2.</_></rects>
      <tilted>0</tilted></_>
    <_>
      <rects>
        <_>
          9 18 9 6 -1.</_>
        <_>
          9 21 9 3 2.</_></rects>
      <tilted>0</tilted></_>
    <_>
      <rects>
        <_>
          10 0 2 4 -1.</_>
        <_>
          11 0 1 4 2.</_></rects>
      <tilted>0</tilted></_>
    <_>
      <rects>
        <_>
          10 1 34 4 -1.</_>
        <_>
          10 1 17 2 2.</_>
        <_>
          27 3 17 2 2.</_></rects>
      <tilted>0</tilted></_>
    <_>
      <rects>
        <_>
          10 6 23 10 -1.</_>
        <_>
          10 11 23 5 2.</_></rects>
      <tilted>0</tilted></_>
    <_>
      <rects>
        <_>
          10 9 2 10 -1.</_>
        <_>
          11 9 1 10 2.</_></rects>
      <tilted>0</tilted></_>
    <_>
      <rects>
        <_>
          10 10 30 3 -1.</_>
        <_>
          25 10 15 3 2.</_></rects>
      <tilted>0</tilted></_>
    <_>
      <rects>
        <_>
          10 23 24 1 -1.</_>
        <_>
          18 23 8 1 2.</_></rects>
      <tilted>0</tilted></_>
    <_>
      <rects>
        <_>
          11 3 18 4 -1.</_>
        <_>
          11 5 18 2 2.</_></rects>
      <tilted>0</tilted></_>
    <_>
      <rects>
        <_>
          11 7 15 8 -1.</_>
        <_>
          11 11 15 4 2.</_></rects>
      <tilted>0</tilted></_>
    <_>
      <rects>
        <_>
          11 8 2 9 -1.</_>
        <_>
          12 8 1 9 2.</_></rects>
      <tilted>0</tilted></_>
    <_>
      <rects>
        <_>
          11 11 2 2 -1.</_>
        <_>
          12 11 1 2 2.</_></rects>
      <tilted>0</tilted></_>
    <_>
      <rects>
        <_>
          12 1 2 1 -1.</_>
        <_>
          13 1 1 1 2.</_></rects>
      <tilted>0</tilted></_>
    <_>
      <rects>
        <_>
          12 2 21 4 -1.</_>
        <_>
          12 4 21 2 2.</_></rects>
      <tilted>0</tilted></_>
    <_>
      <rects>
        <_>
          12 3 28 19 -1.</_>
        <_>
          26 3 14 19 2.</_></rects>
      <tilted>0</tilted></_>
    <_>
      <rects>
        <_>
          12 10 32 7 -1.</_>
        <_>
          28 10 16 7 2.</_></rects>
      <tilted>0</tilted></_>
    <_>
      <rects>
        <_>
          12 11 22 3 -1.</_>
        <_>
          12 12 22 1 2.</_></rects>
      <tilted>0</tilted></_>
    <_>
      <rects>
        <_>
          12 13 2 1 -1.</_>
        <_>
          13 13 1 1 2.</_></rects>
      <tilted>0</tilted></_>
    <_>
      <rects>
        <_>
          13 0 9 10 -1.</_>
        <_>
          13 5 9 5 2.</_></rects>
      <tilted>0</tilted></_>
    <_>
      <rects>
        <_>
          13 8 6 6 -1.</_>
        <_>
          16 8 3 6 2.</_></rects>
      <tilted>0</tilted></_>
    <_>
      <rects>
        <_>
          13 10 2 7 -1.</_>
        <_>
          14 10 1 7 2.</_></rects>
      <tilted>0</tilted></_>
    <_>
      <rects>
        <_>
          13 17 14 2 -1.</_>
        <_>
          13 17 7 1 2.</_>
        <_>
          20 18 7 1 2.</_></rects>
      <tilted>0</tilted></_>
    <_>
      <rects>
        <_>
          13 17 16 2 -1.</_>
        <_>
          13 17 8 1 2.</_>
        <_>
          21 18 8 1 2.</_></rects>
      <tilted>0</tilted></_>
    <_>
      <rects>
        <_>
          13 20 2 4 -1.</_>
        <_>
          14 20 1 4 2.</_></rects>
      <tilted>0</tilted></_>
    <_>
      <rects>
        <_>
          13 21 4 3 -1.</_>
        <_>
          15 21 2 3 2.</_></rects>
      <tilted>0</tilted></_>
    <_>
      <rects>
        <_>
          14 2 19 2 -1.</_>
        <_>
          14 3 19 1 2.</_></rects>
      <tilted>0</tilted></_>
    <_>
      <rects>
        <_>
          14 7 18 10 -1.</_>
        <_>
          14 12 18 5 2.</_></rects>
      <tilted>0</tilted></_>
    <_>
      <rects>
        <_>
          14 9 24 4 -1.</_>
        <_>
          22 9 8 4 2.</_></rects>
      <tilted>0</tilted></_>
    <_>
      <rects>
        <_>
          15 8 17 10 -1.</_>
        <_>
          15 13 17 5 2.</_></rects>
      <tilted>0</tilted></_>
    <_>
      <rects>
        <_>
          15 17 18 4 -1.</_>
        <_>
          15 17 9 2 2.</_>
        <_>
          24 19 9 2 2.</_></rects>
      <tilted>0</tilted></_>
    <_>
      <rects>
        <_>
          16 8 2 5 -1.</_>
        <_>
          17 8 1 5 2.</_></rects>
      <tilted>0</tilted></_>
    <_>
      <rects>
        <_>
          16 19 2 4 -1.</_>
        <_>
          17 19 1 4 2.</_></rects>
      <tilted>0</tilted></_>
    <_>
      <rects>
        <_>
          17 4 24 13 -1.</_>
        <_>
          29 4 12 13 2.</_></rects>
      <tilted>0</tilted></_>
    <_>
      <rects>
        <_>
          18 0 2 8 -1.</_>
        <_>
          18 4 2 4 2.</_></rects>
      <tilted>0</tilted></_>
    <_>
      <rects>
        <_>
          18 0 25 14 -1.</_>
        <_>
          18 7 25 7 2.</_></rects>
      <tilted>0</tilted></_>
    <_>
      <rects>
        <_>
          18 3 22 21 -1.</_>
        <_>
          18 10 22 7 2.</_></rects>
      <tilted>0</tilted></_>
    <_>
      <rects>
        <_>
          19 5 4 19 -1.</_>
        <_>
          21 5 2 19 2.</_></rects>
      <tilted>0</tilted></_>
    <_>
      <rects>
        <_>
          19 16 13 4 -1.</_>
        <_>
          19 18 13 2 2.</_></rects>
      <tilted>0</tilted></_>
    <_>
      <rects>
        <_>
          20 19 2 5 -1.</_>
        <_>
          21 19 1 5 2.</_></rects>
      <tilted>0</tilted></_>
    <_>
      <rects>
        <_>
          21 1 8 7 -1.</_>
        <_>
          25 1 4 7 2.</_></rects>
      <tilted>0</tilted></_>
    <_>
      <rects>
        <_>
          21 9 6 6 -1.</_>
        <_>
          21 11 6 2 2.</_></rects>
      <tilted>0</tilted></_>
    <_>
      <rects>
        <_>
          21 10 2 7 -1.</_>
        <_>
          22 10 1 7 2.</_></rects>
      <tilted>0</tilted></_>
    <_>
      <rects>
        <_>
          21 12 15 6 -1.</_>
        <_>
          26 12 5 6 2.</_></rects>
      <tilted>0</tilted></_>
    <_>
      <rects>
        <_>
          21 17 19 6 -1.</_>
        <_>
          21 20 19 3 2.</_></rects>
      <tilted>0</tilted></_>
    <_>
      <rects>
        <_>
          22 0 2 4 -1.</_>
        <_>
          23 0 1 4 2.</_></rects>
      <tilted>0</tilted></_>
    <_>
      <rects>
        <_>
          22 2 2 3 -1.</_>
        <_>
          23 2 1 3 2.</_></rects>
      <tilted>0</tilted></_>
    <_>
      <rects>
        <_>
          22 3 14 2 -1.</_>
        <_>
          22 4 14 1 2.</_></rects>
      <tilted>0</tilted></_>
    <_>
      <rects>
        <_>
          22 6 3 9 -1.</_>
        <_>
          22 9 3 3 2.</_></rects>
      <tilted>0</tilted></_>
    <_>
      <rects>
        <_>
          22 6 5 2 -1.</_>
        <_>
          22 7 5 1 2.</_></rects>
      <tilted>0</tilted></_>
    <_>
      <rects>
        <_>
          22 7 6 8 -1.</_>
        <_>
          22 11 6 4 2.</_></rects>
      <tilted>0</tilted></_>
    <_>
      <rects>
        <_>
          23 1 8 11 -1.</_>
        <_>
          27 1 4 11 2.</_></rects>
      <tilted>0</tilted></_>
    <_>
      <rects>
        <_>
          23 12 2 5 -1.</_>
        <_>
          24 12 1 5 2.</_></rects>
      <tilted>0</tilted></_>
    <_>
      <rects>
        <_>
          23 15 8 9 -1.</_>
        <_>
          27 15 4 9 2.</_></rects>
      <tilted>0</tilted></_>
    <_>
      <rects>
        <_>
          24 0 2 3 -1.</_>
        <_>
          25 0 1 3 2.</_></rects>
      <tilted>0</tilted></_>
    <_>
      <rects>
        <_>
          24 2 20 20 -1.</_>
        <_>
          34 2 10 20 2.</_></rects>
      <tilted>0</tilted></_>
    <_>
      <rects>
        <_>
          24 6 2 6 -1.</_>
        <_>
          24 6 1 3 2.</_>
        <_>
          25 9 1 3 2.</_></rects>
      <tilted>0</tilted></_>
    <_>
      <rects>
        <_>
          24 6 2 2 -1.</_>
        <_>
          24 7 2 1 2.</_></rects>
      <tilted>0</tilted></_>
    <_>
      <rects>
        <_>
          24 7 3 6 -1.</_>
        <_>
          24 9 3 2 2.</_></rects>
      <tilted>0</tilted></_>
    <_>
      <rects>
        <_>
          24 11 2 1 -1.</_>
        <_>
          25 11 1 1 2.</_></rects>
      <tilted>0</tilted></_>
    <_>
      <rects>
        <_>
          24 11 2 5 -1.</_>
        <_>
          25 11 1 5 2.</_></rects>
      <tilted>0</tilted></_>
    <_>
      <rects>
        <_>
          24 12 2 6 -1.</_>
        <_>
          25 12 1 6 2.</_></rects>
      <tilted>0</tilted></_>
    <_>
      <rects>
        <_>
          24 13 14 10 -1.</_>
        <_>
          24 13 7 5 2.</_>
        <_>
          31 18 7 5 2.</_></rects>
      <tilted>0</tilted></_>
    <_>
      <rects>
        <_>
          24 15 16 9 -1.</_>
        <_>
          24 18 16 3 2.</_></rects>
      <tilted>0</tilted></_>
    <_>
      <rects>
        <_>
          25 0 5 8 -1.</_>
        <_>
          25 4 5 4 2.</_></rects>
      <tilted>0</tilted></_>
    <_>
      <rects>
        <_>
          25 0 18 6 -1.</_>
        <_>
          25 3 18 3 2.</_></rects>
      <tilted>0</tilted></_>
    <_>
      <rects>
        <_>
          25 7 2 10 -1.</_>
        <_>
          25 7 1 5 2.</_>
        <_>
          26 12 1 5 2.</_></rects>
      <tilted>0</tilted></_>
    <_>
      <rects>
        <_>
          25 20 4 4 -1.</_>
        <_>
          27 20 2 4 2.</_></rects>
      <tilted>0</tilted></_>
    <_>
      <rects>
        <_>
          26 2 2 2 -1.</_>
        <_>
          27 2 1 2 2.</_></rects>
      <tilted>0</tilted></_>
    <_>
      <rects>
        <_>
          26 8 2 6 -1.</_>
        <_>
          26 8 1 3 2.</_>
        <_>
          27 11 1 3 2.</_></rects>
      <tilted>0</tilted></_>
    <_>
      <rects>
        <_>
          26 8 2 6 -1.</_>
        <_>
          27 8 1 6 2.</_></rects>
      <tilted>0</tilted></_>
    <_>
      <rects>
        <_>
          26 10 2 2 -1.</_>
        <_>
          27 10 1 2 2.</_></rects>
      <tilted>0</tilted></_>
    <_>
      <rects>
        <_>
          26 18 15 6 -1.</_>
        <_>
          26 21 15 3 2.</_></rects>
      <tilted>0</tilted></_>
    <_>
      <rects>
        <_>
          27 0 8 8 -1.</_>
        <_>
          31 0 4 8 2.</_></rects>
      <tilted>0</tilted></_>
    <_>
      <rects>
        <_>
          27 0 16 6 -1.</_>
        <_>
          27 3 16 3 2.</_></rects>
      <tilted>0</tilted></_>
    <_>
      <rects>
        <_>
          27 4 2 10 -1.</_>
        <_>
          27 4 1 5 2.</_>
        <_>
          28 9 1 5 2.</_></rects>
      <tilted>0</tilted></_>
    <_>
      <rects>
        <_>
          28 0 8 24 -1.</_>
        <_>
          32 0 4 24 2.</_></rects>
      <tilted>0</tilted></_>
    <_>
      <rects>
        <_>
          28 5 2 8 -1.</_>
        <_>
          28 5 1 4 2.</_>
        <_>
          29 9 1 4 2.</_></rects>
      <tilted>0</tilted></_>
    <_>
      <rects>
        <_>
          28 8 2 6 -1.</_>
        <_>
          28 8 1 3 2.</_>
        <_>
          29 11 1 3 2.</_></rects>
      <tilted>0</tilted></_>
    <_>
      <rects>
        <_>
          28 10 2 6 -1.</_>
        <_>
          29 10 1 6 2.</_></rects>
      <tilted>0</tilted></_>
    <_>
      <rects>
        <_>
          29 0 6 5 -1.</_>
        <_>
          32 0 3 5 2.</_></rects>
      <tilted>0</tilted></_>
    <_>
      <rects>
        <_>
          30 0 8 11 -1.</_>
        <_>
          34 0 4 11 2.</_></rects>
      <tilted>0</tilted></_>
    <_>
      <rects>
        <_>
          30 2 8 16 -1.</_>
        <_>
          30 2 4 8 2.</_>
        <_>
          34 10 4 8 2.</_></rects>
      <tilted>0</tilted></_>
    <_>
      <rects>
        <_>
          30 4 2 10 -1.</_>
        <_>
          31 4 1 10 2.</_></rects>
      <tilted>0</tilted></_>
    <_>
      <rects>
        <_>
          30 10 2 3 -1.</_>
        <_>
          31 10 1 3 2.</_></rects>
      <tilted>0</tilted></_>
    <_>
      <rects>
        <_>
          31 0 14 23 -1.</_>
        <_>
          38 0 7 23 2.</_></rects>
      <tilted>0</tilted></_>
    <_>
      <rects>
        <_>
          31 8 2 6 -1.</_>
        <_>
          32 8 1 6 2.</_></rects>
      <tilted>0</tilted></_>
    <_>
      <rects>
        <_>
          31 8 2 7 -1.</_>
        <_>
          32 8 1 7 2.</_></rects>
      <tilted>0</tilted></_>
    <_>
      <rects>
        <_>
          31 9 2 6 -1.</_>
        <_>
          32 9 1 6 2.</_></rects>
      <tilted>0</tilted></_>
    <_>
      <rects>
        <_>
          31 13 8 11 -1.</_>
        <_>
          35 13 4 11 2.</_></rects>
      <tilted>0</tilted></_>
    <_>
      <rects>
        <_>
          32 4 2 13 -1.</_>
        <_>
          33 4 1 13 2.</_></rects>
      <tilted>0</tilted></_>
    <_>
      <rects>
        <_>
          32 4 10 9 -1.</_>
        <_>
          37 4 5 9 2.</_></rects>
      <tilted>0</tilted></_>
    <_>
      <rects>
        <_>
          32 6 2 5 -1.</_>
        <_>
          33 6 1 5 2.</_></rects>
      <tilted>0</tilted></_>
    <_>
      <rects>
        <_>
          33 1 4 4 -1.</_>
        <_>
          33 3 4 2 2.</_></rects>
      <tilted>0</tilted></_>
    <_>
      <rects>
        <_>
          33 1 8 18 -1.</_>
        <_>
          37 1 4 18 2.</_></rects>
      <tilted>0</tilted></_>
    <_>
      <rects>
        <_>
          33 4 4 2 -1.</_>
        <_>
          33 5 4 1 2.</_></rects>
      <tilted>0</tilted></_>
    <_>
      <rects>
        <_>
          33 6 2 8 -1.</_>
        <_>
          33 6 1 4 2.</_>
        <_>
          34 10 1 4 2.</_></rects>
      <tilted>0</tilted></_>
    <_>
      <rects>
        <_>
          33 8 2 12 -1.</_>
        <_>
          34 8 1 12 2.</_></rects>
      <tilted>0</tilted></_>
    <_>
      <rects>
        <_>
          34 1 4 3 -1.</_>
        <_>
          36 1 2 3 2.</_></rects>
      <tilted>0</tilted></_>
    <_>
      <rects>
        <_>
          34 8 2 4 -1.</_>
        <_>
          35 8 1 4 2.</_></rects>
      <tilted>0</tilted></_>
    <_>
      <rects>
        <_>
          34 20 6 4 -1.</_>
        <_>
          37 20 3 4 2.</_></rects>
      <tilted>0</tilted></_>
    <_>
      <rects>
        <_>
          34 20 8 4 -1.</_>
        <_>
          34 22 8 2 2.</_></rects>
      <tilted>0</tilted></_>
    <_>
      <rects>
        <_>
          35 1 4 3 -1.</_>
        <_>
          37 1 2 3 2.</_></rects>
      <tilted>0</tilted></_>
    <_>
      <rects>
        <_>
          35 2 2 13 -1.</_>
        <_>
          36 2 1 13 2.</_></rects>
      <tilted>0</tilted></_>
    <_>
      <rects>
        <_>
          35 9 2 4 -1.</_>
        <_>
          35 9 1 2 2.</_>
        <_>
          36 11 1 2 2.</_></rects>
      <tilted>0</tilted></_>
    <_>
      <rects>
        <_>
          35 21 4 1 -1.</_>
        <_>
          37 21 2 1 2.</_></rects>
      <tilted>0</tilted></_>
    <_>
      <rects>
        <_>
          36 0 8 4 -1.</_>
        <_>
          36 2 8 2 2.</_></rects>
      <tilted>0</tilted></_>
    <_>
      <rects>
        <_>
          36 5 2 12 -1.</_>
        <_>
          36 5 1 6 2.</_>
        <_>
          37 11 1 6 2.</_></rects>
      <tilted>0</tilted></_>
    <_>
      <rects>
        <_>
          36 5 2 10 -1.</_>
        <_>
          37 5 1 10 2.</_></rects>
      <tilted>0</tilted></_>
    <_>
      <rects>
        <_>
          36 7 2 10 -1.</_>
        <_>
          36 7 1 5 2.</_>
        <_>
          37 12 1 5 2.</_></rects>
      <tilted>0</tilted></_>
    <_>
      <rects>
        <_>
          36 19 4 2 -1.</_>
        <_>
          36 20 4 1 2.</_></rects>
      <tilted>0</tilted></_>
    <_>
      <rects>
        <_>
          37 0 2 3 -1.</_>
        <_>
          38 0 1 3 2.</_></rects>
      <tilted>0</tilted></_>
    <_>
      <rects>
        <_>
          37 0 2 4 -1.</_>
        <_>
          38 0 1 4 2.</_></rects>
      <tilted>0</tilted></_>
    <_>
      <rects>
        <_>
          37 0 8 23 -1.</_>
        <_>
          41 0 4 23 2.</_></rects>
      <tilted>0</tilted></_>
    <_>
      <rects>
        <_>
          37 0 6 4 -1.</_>
        <_>
          37 2 6 2 2.</_></rects>
      <tilted>0</tilted></_>
    <_>
      <rects>
        <_>
          37 3 2 12 -1.</_>
        <_>
          38 3 1 12 2.</_></rects>
      <tilted>0</tilted></_>
    <_>
      <rects>
        <_>
          37 5 2 19 -1.</_>
        <_>
          38 5 1 19 2.</_></rects>
      <tilted>0</tilted></_>
    <_>
      <rects>
        <_>
          38 0 2 3 -1.</_>
        <_>
          39 0 1 3 2.</_></rects>
      <tilted>0</tilted></_>
    <_>
      <rects>
        <_>
          39 11 6 10 -1.</_>
        <_>
          41 11 2 10 2.</_></rects>
      <tilted>0</tilted></_>
    <_>
      <rects>
        <_>
          39 20 6 2 -1.</_>
        <_>
          42 20 3 2 2.</_></rects>
      <tilted>0</tilted></_>
    <_>
      <rects>
        <_>
          41 2 4 18 -1.</_>
        <_>
          43 2 2 18 2.</_></rects>
      <tilted>0</tilted></_>
    <_>
      <rects>
        <_>
          41 2 4 20 -1.</_>
        <_>
          43 2 2 20 2.</_></rects>
      <tilted>0</tilted></_>
    <_>
      <rects>
        <_>
          41 3 4 18 -1.</_>
        <_>
          43 3 2 18 2.</_></rects>
      <tilted>0</tilted></_>
    <_>
      <rects>
        <_>
          41 5 4 18 -1.</_>
        <_>
          41 5 2 9 2.</_>
        <_>
          43 14 2 9 2.</_></rects>
      <tilted>0</tilted></_>
    <_>
      <rects>
        <_>
          41 20 4 4 -1.</_>
        <_>
          41 20 2 2 2.</_>
        <_>
          43 22 2 2 2.</_></rects>
      <tilted>0</tilted></_>
    <_>
      <rects>
        <_>
          42 1 3 23 -1.</_>
        <_>
          43 1 1 23 2.</_></rects>
      <tilted>0</tilted></_>
    <_>
      <rects>
        <_>
          42 3 2 17 -1.</_>
        <_>
          43 3 1 17 2.</_></rects>
      <tilted>0</tilted></_>
    <_>
      <rects>
        <_>
          42 3 2 19 -1.</_>
        <_>
          43 3 1 19 2.</_></rects>
      <tilted>0</tilted></_>
    <_>
      <rects>
        <_>
          43 0 2 22 -1.</_>
        <_>
          43 0 1 11 2.</_>
        <_>
          44 11 1 11 2.</_></rects>
      <tilted>0</tilted></_>
    <_>
      <rects>
        <_>
          43 1 2 15 -1.</_>
        <_>
          44 1 1 15 2.</_></rects>
      <tilted>0</tilted></_>
    <_>
      <rects>
        <_>
          43 1 2 22 -1.</_>
        <_>
          44 1 1 22 2.</_></rects>
      <tilted>0</tilted></_>
    <_>
      <rects>
        <_>
          43 2 2 18 -1.</_>
        <_>
          44 2 1 18 2.</_></rects>
      <tilted>0</tilted></_>
    <_>
      <rects>
        <_>
          43 2 2 19 -1.</_>
        <_>
          44 2 1 19 2.</_></rects>
      <tilted>0</tilted></_>
    <_>
      <rects>
        <_>
          43 3 2 11 -1.</_>
        <_>
          44 3 1 11 2.</_></rects>
      <tilted>0</tilted></_>
    <_>
      <rects>
        <_>
          43 3 2 16 -1.</_>
        <_>
          44 3 1 16 2.</_></rects>
      <tilted>0</tilted></_>
    <_>
      <rects>
        <_>
          43 4 2 19 -1.</_>
        <_>
          44 4 1 19 2.</_></rects>
      <tilted>0</tilted></_>
    <_>
      <rects>
        <_>
          43 5 2 15 -1.</_>
        <_>
          44 5 1 15 2.</_></rects>
      <tilted>0</tilted></_>
    <_>
      <rects>
        <_>
          43 7 2 15 -1.</_>
        <_>
          44 7 1 15 2.</_></rects>
      <tilted>0</tilted></_>
    <_>
      <rects>
        <_>
          43 9 2 7 -1.</_>
        <_>
          44 9 1 7 2.</_></rects>
      <tilted>0</tilted></_>
    <_>
      <rects>
        <_>
          43 14 2 2 -1.</_>
        <_>
          43 15 2 1 2.</_></rects>
      <tilted>0</tilted></_></features></cascade>
</opencv_storage>
